0.0147239 0.0103067 0.0108589 0.00736196 0.00202454 0.00478528 0.0103067 0.00588957 0.00644172 0.0101227 0.000368098 0.0143558 0.0145399 0.0093865 0.00184049 0.0108589 0.00533742 0.0163804 0.0167485 0.0163804 0.00607362 0.0169325 0.00202454 0.0171166 0.0173006 0.00110429 0.00331288 0.000736196 0.00184049 0.0123313 0.0176687 0.0180368 0.0176687 0.00865031 0.00680982 0.0134356 0.00294479 0.00423313 0.0180368 0.00791411 0.0104908 0.00220859 0.00349693 0.00680982 0.00625767 0.014908 0.0147239 0.00128834 0.0167485 0.0093865 0.0163804 0.0117791 0.0110429 0.0103067 0.00625767 0.0169325 -0.0390755 -0.00300439 0.169164 0.378423 0.190287 0.00212212 -0.453559 -0.102221 -0.0382081 0.44849 1.01276 0.138907 0.669388 0.616779 0.11321 0.4414 -0.0480654 -0.540362 -0.527297 -0.888947 -0.291904 0.348049 -0.153926 -0.300255 -0.116988 -0.27929 -0.448922 -0.0426078 0.778319 0.337724 0.967023 1.1486 1.00574 0.392185 -0.285314 0.0879657 0.715509 0.452257 0.329719 -0.215088 -0.0222752 0.448703 -0.134614 0.0720684 0.226571 0.237181 0.233006 0.334229 0.539865 0.158391 0.326215 -0.446382 -0.461622 -0.123428 -0.160024 -0.0297427 0.913769 0.276615 0.857377 0.755223 0.604445 0.317498 0.455298 0.414104 -0.0679993 0.143182 0.289801 -0.0650918 0.321811 0.113251 0.196081 0.125362 0.190968 0.217201 0.448562 0.659929 1.14137 0.588369 -0.261014 0.118559 -1.01746 -0.0804902 -0.883513 -0.216861 0.626054 0.280618 -0.0888852 0.384048 0.832806 -0.208295 -0.644499 -0.356689 -0.414263 -0.651111 -1.06911 -0.771614 -0.550553 -0.680714 -0.807378 -0.848297 -0.394332 -0.351341 1.01102 1.03238 1.06251 0.49901 0.237847 -0.501441 -0.713353 -1.20648 -0.596516 -0.206262 0.479779 0.181141 0.196413 0.555912 0.666229 -0.935419 -0.814059 -0.313344 -0.567225 -0.656046 -0.461291 -0.218531 0.644274 0.558993 0.387047 0.804932 0.609746 0.903251 0.982478 1.60355 1.21636 1.16355 0.719567 0.125185 -0.739862 -0.299102 -1.25582 -0.294871 0.33399 -0.74325 0.155514 -0.360301 -0.377798 -1.21169 -1.08599 -0.726403 0.365237 -0.168202 -0.342174 0.101716 0.794876 0.901108 1.25252 1.1797 0.277926 0.79167 1.73934 1.68371 0.685081 0.167935 1.25185 1.01971 0.10855 -0.16601 -1.03438 -0.295086 0.472496 -0.29678 0.0453097 0.0170538 -0.171794 -1.27676 -1.70764 -0.158713 -0.309443 -0.487951 -0.535957 0.212385 0.800376 1.38628 1.45023 1.44695 1.36888 0.905221 0.580119 0.456884 0.995763 0.434001 0.500308 0.999992 0.779308 0.168441 -0.84956 -0.34367 0.603612 -0.278285 -0.361706 -0.399636 -0.061095 -2.05509 -1.83884 -1.11166 -0.315969 -0.539758 -0.50536 1.04195 1.26934 1.29764 1.54323 1.6602 1.41624 0.451238 0.483383 0.41512 0.278108 -0.280328 0.369953 1.01647 1.1079 -0.134499 -0.439855 -0.463378 0.790984 -0.426258 -0.548229 -0.422095 -0.286461 -1.46133 -1.54626 -1.40149 -0.688565 -0.320262 0.131133 1.02811 1.44645 1.52969 1.68235 1.7689 1.03582 0.454421 0.499362 0.376386 0.155989 -0.258596 1.44419 0.636284 0.550839 0.710053 -0.537576 -0.574251 0.730628 -0.00868961 -0.16271 -0.283362 -0.406421 -1.72358 -1.81624 -1.45298 -0.773571 -0.203112 -0.537256 0.582444 0.861335 1.3894 1.29346 0.98455 0.435284 0.317025 -0.0700344 -0.531908 -0.526656 -0.149907 0.00529932 0.410181 -0.0162839 0.526179 -0.964754 -0.448123 0.94103 -0.00501323 0.43539 -0.0665661 -0.930467 -1.6815 -1.2692 -1.37998 -0.88423 -0.849138 -0.342172 -0.0437157 0.750409 0.529409 0.222953 0.609484 0.34567 -0.0189086 -0.529267 -0.686728 0.0259442 -0.434425 0.431565 0.417014 0.346713 0.642931 -1.13133 -0.837798 1.28273 -0.452378 -0.196437 -0.0426497 -1.05035 -1.28684 -0.861061 -1.56804 -1.4241 -1.2523 -0.621753 0.171754 0.507044 0.0110213 -0.0718303 -0.141437 -0.425142 -0.724631 -0.387474 -0.562816 -0.420571 0.353596 0.344344 0.0844698 0.0969844 -1.02073 -0.565673 -0.232599 0.668069 -0.211809 -0.306118 -0.0724155 -0.88544 -0.286723 0.464836 0.120094 0.21888 -0.00143899 0.357803 0.788745 0.910061 0.616398 0.537449 0.932716 0.29188 -0.607507 -1.1671 -1.10671 -0.914867 -0.706627 -0.317047 -1.2938 -0.728876 -1.30753 -0.64578 -0.115305 -0.444728 -0.428136 -0.276282 -0.0615004 0.112794 -0.0805254 0.306189 0.501078 1.03475 1.0479 1.26305 1.84458 2.23285 1.15089 1.14633 1.48947 0.707321 -0.233696 -0.255067 -0.381327 -1.10567 -1.42 -1.23131 -0.788536 -0.514649 -1.31619 -1.02171 -1.43534 -0.0900428 -0.327994 -0.310388 -0.100727 0.218835 -1.42496 -0.619994 -0.170088 -0.233138 0.30167 0.206487 0.994381 0.811551 0.780261 0.548764 1.7833 0.852336 0.484208 0.293633 0.0419479 0.441316 -1.02861 -1.03504 -0.831903 -0.88786 -1.11505 -1.13735 -0.654966 -0.0833273 -0.902268 -0.295886 0.00777438 0.0978646 -1.54716 0.0569916 0.040202 0.711951 0.723038 0.816354 1.55172 1.52506 0.768854 0.913776 1.2988 0.726053 2.17406 1.53489 0.726641 0.845935 0.752402 -0.484929 -0.548156 -1.32608 -1.32448 -1.95491 -0.554642 0.657621 -1.04956 -0.588038 -1.01459 -0.0814364 -1.27862 -0.0496319 0.668627 0.725144 0.913937 0.715769 1.66881 1.20206 0.535286 0.464183 1.87594 1.8988 2.50607 1.8281 2.46541 1.17076 0.527489 -0.243908 -1.49128 -1.26813 -1.73371 -1.63282 -0.712473 0.664699 -1.99171 -1.41717 -0.876664 -0.123747 -1.22409 -0.479203 1.27166 1.49971 1.55251 1.15605 1.62486 1.27722 1.05282 1.84869 2.09056 3.3112 2.95316 3.18137 3.10019 2.28742 1.37127 -0.203684 -0.396086 -1.93109 -2.50417 -2.78436 -0.604659 0.610995 -1.45276 -1.82044 -1.1416 -0.564682 -0.745389 -0.160397 0.884596 2.08454 2.47552 1.15573 1.15425 1.13312 0.939095 1.24962 2.3151 2.83724 2.86453 3.10365 2.67418 2.8785 0.909222 -0.374752 -0.55992 -2.10068 -3.20849 -1.90671 -0.495927 0.536978 -1.59191 -2.26439 -2.73111 -0.470387 -0.98957 -1.13212 0.741252 1.86611 1.59576 1.59995 2.0618 2.0716 1.71581 1.37187 1.84559 1.95465 2.57377 2.94847 2.15416 1.29583 1.1105 -0.222587 0.00570047 -1.19061 -2.01856 -1.12155 -0.324669 0.625932 -0.73101 -1.60852 -1.44781 -2.49943 -1.7061 -1.33296 -0.492015 -0.363875 -0.150353 0.787674 0.993999 0.390049 0.480101 0.799364 2.04694 2.09244 1.51038 1.28934 0.698716 0.183315 0.662674 0.558682 0.128263 -0.0400589 -0.474121 -0.799468 -0.0388077 1.10159 -0.586574 -0.806531 -0.968835 -1.55534 -3.31693 -1.31167 -1.52155 -1.13024 -0.847135 -1.64424 -1.07948 -1.04643 -0.525257 -0.708649 -0.10973 -0.599681 -0.839464 -0.559513 -1.03856 -0.356651 0.492674 -0.221848 1.31783 1.43382 1.51977 0.385459 0.101874 0.998219 -0.623916 -0.419105 -0.520441 -0.684005 -2.1915 -2.17856 -3.23931 -1.35873 -1.05449 -1.40483 -1.40723 -1.06179 -1.26186 -1.3935 -1.53789 -1.31162 -1.43935 -0.785188 -1.38874 -2.35325 -0.302744 1.54908 2.84242 2.48313 2.39095 2.4024 1.33012 1.13462 -0.2585 -0.121194 -0.482536 -0.719995 -0.93371 -1.28109 -1.94055 -2.27109 -2.60444 -3.09966 -2.13963 -1.73212 -2.17608 -1.95148 -2.11925 -3.18231 -2.95773 -2.98597 -2.06875 -0.79576 0.36518 2.32382 2.61081 2.92516 3.22998 2.34154 0.750907 0.00110429 0.00184049 0.00791411 0.0134356 0.0173006 0.0167485 0.0128834 -0.297052 -0.310856 -0.126267 -0.51064 -0.501253 -0.782687 -0.835835 -0.501768 -0.0935215 -0.42041 -0.298403 0.00184049 0.0171166 0.000736196 0.0108589 0.176404 0.557183 1.46298 1.19489 0.000736196 0.0160123 0.00699387 0.0104908 0.0165644 0.0117791 0.00276074 0.00828221 0.00460123 0.0097546 0.0169325 0.0141718 0.00220859 0.00993865 0.0101227 0.0145399 0.00754601 0.0121472 0.0167485 0.011227 0.00496933 0.0117791 0.00570552 0.0180368 0.00625767 0.00423313 0.00791411 0.00865031 0.00607362 0.0147239 
0.00883436 0.00625767 0.00717791 0.0176687 0.0101227 0.00607362 0.00957055 0.0134356 0.00533742 0.0173006 0.00552147 0.0097546 0.00496933 0.0139877 0.0143558 0.0110429 0.0161963 0.00239264 0.00147239 0.00607362 0.015092 0.00276074 0.00496933 0.0143558 0.00202454 0.0173006 0 0.015092 0.00110429 0.0139877 0.00404908 0.0145399 0.00809816 0.0126994 0.00533742 0.00202454 0.00993865 0.0163804 0.00257669 0.0143558 0.00460123 0.00220859 0.0119632 0.00920245 0.00993865 0.00496933 0.00441718 0.0178528 0.000368098 0.0097546 0.00773006 0.00662577 0.00717791 0.0130675 0.0090184 0.00828221 -0.308098 -2.43154 -2.25148 -2.00685 -1.65437 -0.916101 -1.19711 -0.985211 -0.920592 -0.363518 0.012725 0.341995 0.418759 0.66545 0.606061 1.31277 0.771735 0.807413 -0.333835 -0.180391 -0.829196 0.0481524 -0.364883 -0.813545 -0.884889 -1.34984 -1.29851 -0.380137 -2.25861 -3.26939 -2.92555 -2.82201 -2.62082 -2.36018 -0.492604 0.280619 0.590419 0.820775 1.22728 1.38392 0.770106 1.07438 1.2627 1.2507 1.46278 1.48654 1.71347 1.41342 0.641696 -0.1648 -1.15366 -1.13861 -1.81012 -1.1954 -1.34116 -1.97661 -1.59629 -3.97279 -2.31481 -2.63185 -1.92241 -1.36972 0.475509 1.87602 1.86114 1.02989 1.37116 1.01879 1.22133 0.974462 1.33473 1.21235 1.33716 1.74074 1.26197 1.92203 1.73957 1.65717 0.127133 -1.61921 -1.53358 -0.515469 -2.09677 -0.0145188 -1.02041 -3.04127 -3.55272 -2.37747 -1.46912 -0.434544 1.11758 2.28641 2.57744 1.25693 1.17362 0.445167 0.247967 0.241746 0.211235 0.53137 1.1256 1.02048 1.99858 2.34794 2.6097 2.55226 1.70685 -0.247077 -0.45266 -2.05583 -0.980185 -0.0483931 -1.11763 -2.57372 -2.18466 -2.55326 -0.718841 0.0666005 0.628611 1.81631 1.98023 1.48499 0.402575 -0.0310141 -0.208521 -0.342331 -0.190577 -0.122527 -0.152477 1.05639 1.81044 2.1774 2.43065 2.48089 1.28057 1.39668 -0.887771 -0.575427 -0.799926 -0.836615 -1.15577 -2.84606 -2.61215 -1.60523 -2.01409 -1.08671 0.137913 0.589617 0.601109 0.685147 -0.243664 -1.42566 -1.57322 -1.64748 -1.67545 -1.47069 -1.18372 0.655994 1.62904 1.84396 1.54605 1.98569 1.42761 0.311464 0.611673 0.203851 -0.782635 -0.889211 -1.10083 -1.65659 -1.56909 -1.05487 -1.36851 -1.94436 -0.588036 0.286705 -0.304087 -0.116706 -0.562615 -0.776657 -1.24914 -1.80067 -1.76204 -0.649153 -0.175295 0.869179 0.708242 0.648654 0.82468 1.97689 -0.240478 0.363545 0.311701 0.342702 0.182426 -0.941576 -0.93117 -0.553282 -1.04362 -1.11331 -1.20652 -1.34466 -1.39568 -0.150948 -0.0737858 -0.172842 -1.08205 -0.982677 -1.11944 -1.78483 -1.43637 -0.320317 0.442209 0.768173 0.687041 0.623532 -0.0955427 0.389194 -0.571067 -0.0769911 -0.293186 -0.244117 0.189376 -1.1397 -0.850279 -0.734478 -1.09316 -1.06677 -1.30178 -1.44374 -1.11931 -1.32018 -0.311762 -1.00869 -1.41467 -1.22051 -1.17466 -0.598898 -0.246174 -0.209121 0.105743 0.164567 0.548198 0.43082 -0.561702 0.0374329 -0.406429 -0.896515 -0.58269 -0.442624 -0.0710176 -0.847801 -0.773842 -0.302688 -0.829872 -1.25472 -1.1716 -1.49813 -1.71281 -1.08787 -0.877457 -0.351826 -1.50544 -1.49358 -1.3349 -0.446032 0.124841 0.0117407 -0.201897 -0.0796149 0.172174 -0.788988 -1.04259 -0.376857 -1.13234 -0.645586 -0.625561 0.214675 0.115502 -0.755181 -0.11567 -0.5674 -0.789865 -0.746796 -1.0915 -1.69842 -1.9457 -1.21623 -1.49634 -1.72484 -1.74195 -1.47496 -0.688676 -0.017139 0.0743302 -0.370383 -0.786977 -0.929538 -1.16402 -1.89009 -1.52055 -0.834235 -1.18195 -0.535204 -0.346898 0.0860348 -0.0731634 -0.876251 0.0624125 -0.774954 -0.626603 -1.11019 -1.49942 -1.46856 -2.23226 -1.81635 -2.43053 -3.24906 -3.28022 -1.58056 -1.38164 -1.44475 -1.01483 -1.24478 -0.992039 -1.62545 -1.78422 -1.62178 -0.977368 -0.565193 -0.221196 -0.21894 -0.493374 0.484448 0.451086 -0.527979 0.393432 -0.466054 -0.395091 -1.18848 -1.12684 -1.85091 -2.2859 -1.81561 -2.45822 -3.62637 -1.7989 -1.75762 -1.63604 -1.25408 -1.18604 -1.15486 -1.8263 -0.93476 -1.6362 -0.803979 -0.174383 0.469276 0.399876 0.786704 0.711516 1.12774 1.18853 0.196513 -0.326611 -0.626428 -0.35619 -0.607412 -0.961559 -1.90023 -1.69732 -0.810812 -1.05683 -1.27789 -1.4539 -1.34376 -1.00897 -1.0662 -0.881052 -0.703068 -0.235435 -0.427875 -0.41875 -0.146444 0.713792 0.968669 0.744905 1.00063 1.23258 1.44607 0.940997 -0.0162472 -1.24512 -0.577566 -0.685061 -0.579706 -1.20542 -1.36417 -1.41747 -0.145255 -0.0226891 -0.294276 -0.973235 -0.412547 -0.743524 -0.426603 -0.474992 -0.957318 -0.67836 -0.206768 -0.190591 0.438823 0.928587 1.48204 1.01845 1.02418 1.39429 1.39694 1.30767 0.244151 -1.10999 -1.29569 -0.638783 -0.873437 -0.899723 -1.53256 -0.388566 1.0462 0.992294 0.0834141 -0.35776 -0.19111 -0.539243 -0.856401 -0.571128 -1.13941 -1.11589 -0.232892 -0.0142631 0.660592 1.14224 0.797669 0.692015 0.75289 1.20534 1.1749 1.11994 0.0481918 -0.580837 -0.687964 -0.192951 -0.197093 -0.293869 -0.581244 0.417297 1.91151 1.2159 0.768393 -0.331177 -0.232597 -1.20036 -1.78174 -2.62071 -1.28496 -0.972579 -0.45418 0.192699 0.387134 1.26092 1.09265 0.737353 0.364814 1.19688 0.933531 0.809885 0.528631 -0.595364 -0.856549 -0.187116 0.162915 0.722847 0.671697 1.59284 2.72404 1.43337 0.856868 -0.475201 -0.737883 -1.74458 -1.93901 -2.03969 -2.28186 -0.997269 -0.396691 0.311633 0.696322 2.19645 1.62101 0.303649 0.832864 0.904984 0.726861 0.178393 0.627011 -0.588865 -1.35354 -0.306533 0.529554 0.745587 1.35707 1.91312 2.11107 1.87349 1.39351 -0.390819 -1.292 -2.07644 -1.50182 -1.65768 -1.87994 -1.85421 -0.389195 0.278322 1.18284 1.54365 0.901443 1.30573 0.916113 1.27761 0.0208735 0.158937 0.626038 -0.587272 -1.4483 -0.798017 0.320923 1.52895 2.07155 1.79355 2.70363 2.16278 1.23042 -0.153731 -0.849155 -1.11799 -0.913784 -0.777325 -0.957867 -1.22999 -0.286563 0.901087 0.956599 1.89437 0.684331 0.729186 2.16334 0.562727 0.259542 0.0176683 0.450694 -0.576298 -1.18272 -0.356535 -0.0219449 0.707289 1.46127 1.53663 2.63498 1.84143 0.301503 -0.300032 -0.139821 -0.616232 -0.627093 -0.60419 -0.123888 0.41221 0.123624 0.11391 1.75151 1.62904 1.74777 2.27599 2.44774 1.96896 0.921906 0.258679 0.782219 -0.434041 -1.43573 -0.467961 0.109554 0.37003 0.22497 1.2928 1.64932 0.770503 0.870445 0.663056 0.464272 -1.02564 -0.74175 -0.810629 -0.486208 0.535063 0.974134 0.68324 0.728147 2.15742 1.60711 1.42463 1.59483 1.71479 1.21327 0.477691 0.918803 -0.0210994 -0.832507 -0.117956 -0.340605 -0.104012 0.261973 -0.109721 -0.137564 0.693452 1.00009 0.308926 0.355284 -0.113118 -0.0684166 -0.170277 -0.325283 0.487518 0.583427 1.38946 1.03464 0.408737 0.645812 0.977787 1.43489 1.34607 1.19763 1.32626 1.05285 0.386575 -0.450305 -0.186325 -0.420261 -0.58118 -0.507872 -1.09359 -0.909835 -0.921753 -0.173483 -0.0906523 0.679583 0.0155501 -0.498981 -0.205556 -0.508522 0.359249 0.16548 0.0165345 -0.810123 -0.657538 -0.405538 0.481328 0.49978 0.579528 0.581786 0.0537353 0.883711 0.0173006 0.0169325 0.011411 0.0106748 0.000552147 0.0152761 0.00699387 0.113691 0.115163 0.112005 -0.0322954 -0.0317433 -0.0558534 0.327531 0.596598 0.89375 0.16298 0.240296 0.0134356 0.0139877 0.0103067 0.00846626 0.185849 0.51785 0.822147 0.598368 0.0104908 0.0165644 0.00312883 0.00754601 0.0176687 0.0115951 0.0174847 0.0154601 0.0152761 0.0138037 0.000184049 0.000736196 0.00588957 0.00386503 0.00754601 0.00147239 0.00276074 0.00662577 0.00515337 0.000736196 0.0123313 0.000184049 0.00128834 0.0103067 0.0158282 0.00404908 0.0161963 0.00570552 0.00239264 0.0128834 
0.0123313 0.0174847 0.0123313 0.00754601 0.00515337 0.00128834 0.0161963 0.000368098 0.0104908 0.00846626 0.0125153 0.000184049 0.00773006 0.0182209 0.00588957 0.000184049 0.00662577 0.0104908 0.0156442 0.0126994 0.0158282 0.0104908 0.00184049 0.0143558 0.00294479 0.000736196 0.000184049 0.0167485 0.00478528 0.0158282 0.0180368 0.00110429 0.00717791 0.0136196 0.0176687 0.0126994 0.00423313 0.00441718 0.00754601 0.0128834 0.0090184 0 0.00147239 0.0141718 0.00736196 0.00699387 0.00184049 0.00496933 0.0152761 0.0163804 0.00533742 0.000368098 0.00423313 0.00239264 0.0161963 0.00331288 -0.73762 -2.59212 -3.07126 -2.39383 -2.58946 -1.41979 -0.926525 0.270287 0.242085 0.634177 1.30111 0.801953 1.10446 0.822334 0.90229 1.63259 1.833 0.664152 0.165 1.38597 0.584124 0.600379 0.149594 -1.45399 -1.30872 -1.89208 -1.86983 -0.806657 -2.41727 -2.22752 -2.40874 -2.36329 -2.46153 -2.4319 -0.354048 1.17255 2.29964 2.33173 3.02287 2.7014 2.2053 2.50088 2.50847 2.31278 2.90959 3.1344 3.36219 3.76252 2.00538 -0.179267 -1.00913 -0.635713 -0.76192 -0.668028 -0.404623 -0.397991 -1.18204 -2.70384 -1.49626 -2.60773 -1.80424 -1.14636 0.185402 1.22523 2.83855 2.82658 3.58198 2.66041 2.76564 2.4628 2.76044 2.61513 2.56081 3.00124 3.55588 2.64812 2.34801 1.24661 0.645805 -1.39703 0.375015 0.164051 0.498741 1.63747 0.206856 -0.974778 -1.84018 -1.77485 -1.74939 0.633849 0.54897 2.45551 2.72291 2.44067 1.86439 1.5612 1.89754 1.09644 1.7006 1.60757 1.9266 3.36318 2.59061 2.68211 2.68565 0.766184 1.58121 0.0844404 -0.563057 1.29905 2.04258 1.70013 -0.17722 -1.23034 -1.10602 -2.29055 -1.56767 0.486833 -1.23533 0.433817 0.904262 0.223862 -0.777714 0.690416 0.629218 1.55625 0.700096 1.22685 0.779858 0.828241 0.995033 2.53737 2.68676 0.974045 0.648549 1.1313 0.0277789 0.245404 1.96339 0.120674 -0.192978 -2.40274 -2.21937 -1.49886 -2.53117 -0.983995 -2.48339 -1.52804 -1.54354 -1.781 -3.88267 -0.61921 -0.504582 -0.165657 -0.139135 -0.264084 -1.44413 -0.999807 0.120375 0.286447 1.26194 1.27891 0.318359 0.816805 1.6261 0.935088 1.16143 0.225968 -0.132642 -1.58082 -1.09977 -0.988691 -1.3735 -0.787609 -2.90825 -1.51539 -2.45073 -2.89297 -4.0095 -1.44294 -0.570701 -0.117181 -0.377107 -0.0931018 -0.751526 -0.908797 -1.62114 -0.26977 0.290316 0.95665 0.50962 0.926281 1.17734 0.889183 -0.131996 0.147754 -0.00224377 -0.397268 -0.968178 -0.698928 -1.06005 0.351656 -2.04214 -1.75467 -2.42491 -2.82857 -4.69307 -2.33195 -1.07034 -0.0635778 0.174855 0.440583 0.0182338 -1.45768 -1.22328 -0.7941 -0.115644 1.43474 0.716561 1.01231 0.83747 -0.275012 -0.0776686 0.700627 0.1096 -0.677849 -1.23652 -0.986837 -1.23011 0.621407 -1.37453 -2.2324 -2.14221 -3.57156 -5.05766 -2.63439 -1.1369 0.22191 0.784325 0.425889 -0.884881 -1.80819 -1.65688 -1.23098 -0.243329 1.28678 0.662339 -0.0158313 0.267694 -0.527202 -0.0943906 0.84362 -0.0601211 -0.166512 -0.788182 -0.611887 -0.958487 0.239678 -1.87871 -1.54955 -2.59703 -3.36736 -5.57186 -2.41833 -1.06947 0.280626 0.615696 0.667917 -0.860671 -2.18311 -1.36473 -0.108248 0.319466 -0.991355 -0.518273 0.335615 -0.272809 0.191335 1.95004 0.192396 0.694925 -0.187333 -0.488762 -0.928634 -1.05676 0.361856 -1.35751 -0.945687 -1.31152 -2.69573 -5.14332 -1.66704 -0.726783 1.27207 0.982756 0.389776 -0.137914 -1.71401 -1.15257 -1.08617 -2.59889 -1.07873 -0.269904 -0.531247 0.602389 0.310486 1.64078 0.177127 0.681183 -0.478524 -0.511159 -0.87501 -0.825266 0.517287 -1.63192 -1.02823 -1.73323 -3.18507 -4.6841 -1.35142 -0.295505 0.29087 -0.113722 -0.318095 -0.338493 -1.64771 -3.43763 -2.7833 -1.46589 -1.585 -0.49594 -0.135451 -0.235765 2.14714 1.07396 0.534293 1.04789 -0.382971 -0.0543842 -0.608375 -0.870573 -1.44821 -2.70892 -2.42788 -2.9726 -4.08322 -3.88038 -2.07638 -1.74454 -0.809744 -1.48015 -1.35452 -1.95269 -2.56529 -2.70417 -1.56366 -1.19722 -0.461658 0.989429 3.03591 1.48395 1.63952 1.47732 0.659157 1.25892 -0.348709 -0.0258447 -0.382024 -1.08679 -1.17716 -2.75368 -2.15844 -1.67717 -2.26807 -5.05541 -2.55254 -1.66668 -1.80358 -0.794999 -1.64704 -2.16096 -3.89518 -3.26107 -0.808743 1.71766 2.06851 2.6567 2.03563 2.55788 2.49074 1.44617 0.796639 -0.387628 -0.335774 -0.46595 -0.0651004 -1.03746 0.447782 -0.905045 0.406897 0.28343 -1.04932 -2.66862 0.23017 0.216287 0.379487 -0.119117 -2.14803 -2.99006 -3.53106 -3.72604 -2.25604 -1.84948 1.46616 1.73 2.25243 2.58644 2.53549 2.39867 0.850002 0.00107417 -0.934023 -0.323447 -0.30971 -0.71295 0.672102 -0.273694 0.591061 -0.609403 -1.80854 -3.21651 -1.03201 -0.582825 -0.328656 -0.451666 -1.92083 -2.11772 -4.40496 -3.96581 -3.45576 -2.04483 -1.40056 2.0411 1.98285 2.19055 2.41759 2.24608 0.820801 -0.767637 -0.351395 -0.332301 -0.34872 -0.587937 1.17503 0.228163 0.719536 -0.597374 -1.37117 -3.43043 -0.593259 -0.541208 -0.530497 -0.980148 -1.16802 -1.58571 -2.63908 -2.3269 -3.57074 -2.60026 -1.89373 0.222458 1.44727 1.99626 2.14517 2.06682 1.46421 -0.674694 -1.05978 -0.307236 0.258381 0.663199 2.59415 0.326515 1.16432 0.26789 -0.711602 -2.74657 -0.381662 -0.306403 -0.246476 -0.509018 -0.947498 -0.671989 -2.17627 -1.52901 -0.933297 -1.82818 -2.12527 -0.469854 0.130367 2.14708 2.11519 1.48524 1.31629 -0.677882 -1.12692 -0.429046 0.318411 0.850103 2.13735 0.595771 1.2166 0.712401 -0.330451 -2.57062 -0.61174 -0.99036 -0.083573 -1.54833 -0.458757 -0.873838 -1.33329 -1.84727 -0.704472 -2.24407 -2.53364 -1.1013 -0.0455382 2.14907 1.51401 1.75846 0.986877 -0.677987 -1.75193 -0.052501 -0.087844 0.25384 2.17753 0.382322 1.52132 0.904632 0.144049 -1.69273 0.0662462 -0.649948 -0.096204 0.00326926 -0.295382 -0.406731 -0.648048 -0.840601 -1.02603 -0.104106 -1.85169 -1.59669 -0.457063 -0.525785 1.62949 0.592593 0.152717 -0.676463 -1.21012 -0.428581 -0.710423 0.156948 1.18367 0.504071 2.17705 1.48944 0.088791 -1.74155 0.552545 0.359606 -0.00878413 0.375518 0.758653 -0.223039 -0.235509 0.0510719 0.905682 1.7707 -0.439382 0.00205657 -0.0675315 0.142093 0.171341 0.241612 0.743145 -1.32197 -3.15344 -2.97998 -2.82276 -2.25351 -0.398323 0.0189413 1.12742 1.00322 0.801428 0.279758 3.19891 2.0933 1.71073 1.3941 2.10423 2.83766 1.05438 0.629102 1.00713 1.02654 -1.5624 -1.86301 -1.69091 -1.30722 -3.07345 -1.12966 0.989375 -1.06172 -4.21822 -4.06344 -4.04577 -3.40906 -1.08487 -0.684544 -0.144684 0.737135 0.662922 0.065467 2.34885 1.58408 2.26487 1.1068 1.5104 2.72961 0.573075 1.38665 0.682509 0.101225 -0.601338 -1.81785 -3.01805 -3.22791 -3.05107 -3.8518 1.26655 -1.51869 -3.85128 -4.03003 -4.20046 -4.30768 -2.35725 -2.21949 -0.616049 -0.910543 -0.516707 -0.424949 2.252 2.46079 2.12636 2.0855 2.09057 2.93818 0.215645 -0.149703 -0.749804 -0.391143 -2.24309 -4.09263 -4.6941 -4.34862 -4.58408 -5.36703 0.393516 0.0123313 0.0163804 0.00312883 0.00478528 0.0090184 0.0117791 0.0167485 0.14402 0.142364 0.153059 0.0458265 0.0456425 -0.105153 0.10029 0.399059 0.345342 0.165463 0.205938 0.00404908 0.00883436 0.00773006 0.0130675 0.205004 0.554951 0.812634 0.621946 0.00607362 0.0128834 0.0178528 0.0121472 0.00110429 0.0173006 0.0160123 0.00533742 0.00478528 0.0160123 0.00368098 0.00570552 0.0132515 0.00736196 0.0123313 0.00552147 0.00220859 0.00386503 0.00773006 0.00662577 0.00736196 0.00533742 0.00791411 0.00809816 0.00957055 0.000184049 0.0147239 0.0169325 0.00791411 0.0147239 
0.0090184 0.0169325 0.00828221 0.0121472 0.0163804 0.00496933 0.000552147 0.00165644 0.00662577 0.0125153 0.0136196 0.00920245 0.00625767 0.00717791 0.0138037 0.0138037 0.00331288 0.0123313 0.0090184 0.00220859 0.00496933 0.0173006 0.0090184 0.0163804 0.0167485 0.00460123 0.0174847 0.0145399 0.000736196 0.000552147 0.00276074 0.0163804 0.0134356 0.00846626 0.0154601 0.0147239 0.00809816 0.00294479 0.00165644 0.00625767 0.00699387 0.00257669 0.0163804 0.0163804 0.00441718 0.0123313 0.00128834 0.00552147 0.0139877 0.00920245 0.0104908 0.0182209 0.00680982 0.00920245 0.00404908 0.0139877 -0.0232551 -1.18701 -0.89984 -0.563883 -0.114667 -0.189946 -0.0547464 0.0561134 0.107023 0.178147 0.0412512 -0.580735 -1.1383 -1.03251 -1.18443 -0.621017 -0.417782 0.0901408 0.100343 0.592359 0.475237 1.65394 1.71025 1.55209 1.2622 0.972028 0.957949 -0.0552805 -0.826002 -0.846976 -0.581932 -0.308487 -0.375585 0.0753471 0.175022 -0.371369 -0.51638 -0.665788 -0.514547 -0.654353 -0.782537 -0.896051 -0.676611 -0.704565 -0.787176 -0.40873 -0.438187 -0.297509 -0.0237427 1.86832 1.669 1.57027 1.06661 1.52287 1.4593 -0.654628 -0.257212 -1.25436 -0.631103 -0.698856 -0.867785 -0.451917 -0.298381 -0.121414 -0.452566 -0.559411 -0.361728 -0.861512 -0.866098 -0.921089 -0.863822 -0.934101 -0.67367 -0.307341 -0.461689 -0.429007 0.0747346 1.17535 1.2429 0.819678 1.11999 1.56605 0.919803 0.0462771 -0.646867 -1.15905 -1.33067 -1.25139 -1.4531 -0.480868 -0.0017885 0.333075 0.114107 -0.117807 0.0390948 -0.0850081 0.022113 0.193831 0.0611096 0.0469989 0.136415 -0.13071 -0.154496 -0.119272 0.00399709 1.00348 1.02322 0.705571 0.672356 0.973983 1.19656 0.0335899 -0.768312 -1.51952 -1.76803 -2.09116 -1.79413 -1.27095 -0.218121 0.23996 0.506546 0.585831 0.847487 0.310104 0.364203 0.359143 0.301423 0.442991 -0.0138942 0.486515 0.626103 0.77116 0.622288 1.37835 0.57746 0.433283 -0.352417 0.642122 0.373677 -0.340614 -0.784067 -2.17943 -2.58531 -2.78786 -2.68167 -2.03392 -0.857113 0.0757109 0.581185 0.445992 0.425733 -0.083882 -0.0494672 -0.0927113 -0.215086 -0.0209749 0.180329 0.817481 1.06861 0.930922 0.754947 1.1794 0.561111 -0.171267 -0.367031 -0.491477 0.377563 -0.350126 -0.786234 -2.00962 -2.67757 -2.4286 -2.53481 -2.43667 -0.908511 0.212915 0.432687 0.393007 -0.0714033 0.240109 -0.106735 -0.244262 -0.178876 0.245745 0.555695 0.726145 1.22526 0.951456 0.589658 1.36468 0.292967 -0.241298 -0.606842 -0.860573 0.157547 -0.429438 -0.606324 -1.99358 -2.80115 -2.77529 -2.50516 -2.33951 -0.898348 -0.103518 0.716732 0.270206 -0.0187711 0.0246672 -0.0669467 -0.0484401 0.0287135 0.495706 0.781894 0.683784 1.33478 0.987408 0.635581 1.14846 -0.315934 0.0641128 -0.528768 -0.727743 0.181407 -0.310645 -0.766054 -1.95638 -2.62122 -2.84113 -2.59623 -1.99984 -1.12853 -0.592092 0.332899 0.481694 -0.140345 0.0243575 -0.00432996 0.256389 0.566225 0.503507 0.656462 0.652087 1.3564 1.12623 0.541586 0.769397 0.297239 -0.300007 -0.707861 -0.677057 0.1471 -0.381811 -0.939289 -1.52841 -2.28515 -2.86473 -2.57852 -1.98139 -1.44904 -0.533148 0.00648386 0.246889 -0.682001 -0.267174 -0.186385 0.264643 0.625253 0.453824 0.594691 0.48647 1.19128 0.865822 0.190275 0.416211 0.110802 -0.363656 -0.608593 0.167969 0.300516 -0.475332 -1.15243 -1.60721 -1.86205 -2.76984 -2.66698 -2.04448 -1.60173 -0.633856 -0.480924 -0.694401 -0.796043 -0.88746 -0.208854 0.390256 0.280883 0.0243909 0.257217 0.312086 0.542296 0.61238 0.0217239 0.445224 0.152147 -0.528551 -0.524639 0.000294653 0.132486 -0.754199 -1.1034 -1.94403 -1.79801 -2.52507 -2.36499 -1.88687 -1.70305 -0.806966 -0.78077 -1.32404 -1.29056 -0.62172 -0.202493 -0.110514 -0.0557705 -0.428614 -0.21598 -0.459292 -0.678441 -0.253855 -0.14989 0.324392 0.0866738 -0.4398 -0.937128 0.090856 0.275363 -0.535045 -1.06876 -1.70881 -1.70882 -2.11277 -2.46397 -1.86299 -1.0126 -0.389653 -0.373029 -0.966099 -0.89707 -0.850114 -0.33875 -0.0611639 -0.46306 -0.573373 -0.317708 -0.862383 -0.758671 -0.200377 -0.407213 0.370715 -0.126899 -0.761689 -0.52959 0.272833 0.250466 -0.446955 -1.30927 -1.73358 -1.71612 -1.89309 -2.36065 -1.84087 -1.01656 -0.0217015 0.371708 -0.0391133 -0.0469887 0.278264 0.31456 0.449294 0.127694 -0.349342 -0.09548 -0.726593 -0.664863 -0.310476 -0.0800633 0.220153 -0.55184 -1.23399 -0.269612 0.124255 0.335738 -0.6587 -1.04554 -1.80968 -1.65164 -1.84063 -2.42604 -1.81064 -0.924636 0.00728089 0.371356 0.219845 0.283765 0.791204 0.84708 1.02163 0.81652 0.889744 0.123566 -0.453997 -0.366043 -0.090016 -0.265456 0.0329865 -0.39054 -0.90652 -0.413375 -0.239354 0.0545357 -0.385545 -1.06564 -1.81867 -1.77064 -1.9904 -2.07246 -1.95607 -0.521643 0.417359 0.546785 0.512923 0.549707 1.16597 1.34174 1.03569 0.793457 0.861176 0.495149 0.0656989 0.104564 -0.186814 -0.0362529 -0.199068 -0.401366 -0.818423 -0.1869 -0.085873 -0.0932069 -0.311746 -0.710745 -1.94292 -1.89184 -2.0227 -2.05284 -1.97278 -0.405031 0.64183 0.716293 0.467545 0.511893 0.908302 0.948537 0.71782 0.662503 0.743744 0.771359 0.168169 0.17002 0.253347 0.0284294 -0.0835853 -0.778139 -0.889709 -0.254749 -0.513369 0.0701787 -0.403556 -0.706455 -1.14342 -0.936679 -0.728328 -0.862225 -0.683899 0.51709 0.532025 0.452907 0.457879 0.403187 0.671963 1.0831 0.854115 0.777954 0.777303 0.531815 0.190219 0.146672 0.253762 -0.0239048 0.188557 -0.88912 -0.503966 -0.347004 -0.48815 -0.429521 -0.47027 -0.700766 -0.617728 -1.08465 -0.686821 -0.531765 -0.463996 0.22062 0.187285 0.365 0.634116 0.455708 0.166403 0.869231 0.530144 0.706686 0.957717 0.439112 0.0159306 0.0395062 0.166286 -0.557531 -0.446913 -0.56038 -0.376228 -0.115714 -0.437095 0.324974 -0.261238 -0.70353 -0.475668 -0.553 -0.606021 -0.167953 0.108441 -0.0899054 0.865854 0.25758 0.434603 0.305739 0.690782 0.994071 1.04875 1.05067 1.07208 0.754545 -0.00146766 0.0154076 -0.143039 -0.0446808 -0.426249 -0.885376 -0.0355704 -0.296562 0.152413 -0.737963 -0.0993902 -0.709513 -1.02727 -0.101562 -0.0123508 -0.581319 -0.22209 0.00655999 0.370097 0.47313 0.355967 0.293146 0.993108 1.18463 1.03532 0.860344 1.19108 1.08411 -0.174323 -0.696436 -0.094782 -0.433926 -0.549597 -0.275978 0.536728 0.867967 0.523377 -0.00474389 0.1775 -0.261586 -0.918979 -0.584944 0.632964 0.241669 -0.424454 -0.546045 -0.258269 -0.260249 0.0289497 -0.00125519 0.896288 0.71029 1.07756 0.932242 1.32967 0.921155 0.115832 -0.442825 -0.882233 -0.426339 -0.640704 0.185577 1.0351 0.811641 0.391065 0.164222 0.210805 -0.280443 -0.611717 -0.483207 -0.478123 -0.071658 0.0682887 -0.0965165 -1.04473 -0.633454 0.0713374 -0.150436 0.681626 0.891462 0.759185 0.626031 0.621858 0.516614 -0.0439496 -0.461297 -0.528504 -0.698507 0.0156098 0.744683 0.485757 0.434903 0.419175 0.532488 0.459643 -0.0282882 -0.171881 -0.072378 -0.27285 -0.438895 -0.525949 -0.618462 -0.499007 -0.70083 -0.329032 0.108081 0.697533 0.688591 0.563396 0.704641 0.579503 0.379418 0.270072 -0.58936 -0.406466 0.0784285 -0.189311 0.114515 0.237209 0.473768 0.542449 0.622855 0.328987 0.000736196 0.00699387 0.00957055 0.00368098 0.00331288 0.0154601 0.0145399 0.126718 0.130214 0.137204 -0.0329202 -0.0336564 -0.191314 -0.583071 -0.459661 -0.155483 -0.267157 -0.150877 0.0169325 0.00128834 0.00496933 0.0093865 -0.00766683 0.0701044 0.205155 0.249145 0.0103067 0.00368098 0.00184049 0.00644172 0.0154601 0.0126994 0.0121472 0.0147239 0.00809816 0.0143558 0.00828221 0.0101227 0.000552147 0.00257669 0.00625767 0.0119632 0.00607362 0.00478528 0.00993865 0.0163804 0.00791411 0.0178528 0.0134356 0.011227 0.0152761 0.0090184 0.0165644 0.0158282 0.00110429 0.000368098 
0.011227 0.0125153 0.0123313 0.015092 0.00368098 0.0108589 0 0.0173006 0.0134356 0.00202454 0.000368098 0.0093865 0.0141718 0.014908 0.011411 0.00202454 0.00478528 0.0173006 0.0165644 0.00128834 0.0165644 0.00607362 0 0.000368098 0.0104908 0.00680982 0.00957055 0.00257669 0.0108589 0.00276074 0.00717791 0.00110429 0.00257669 0.00110429 0.00478528 0.0182209 0.0115951 0.00791411 0.0132515 0.00147239 0.00331288 0.0178528 0.00625767 0.00257669 0.00276074 0.0158282 0.00165644 0.00478528 0.0145399 0.00496933 0.00239264 0.00773006 0.0163804 0.00680982 0.0134356 0.0132515 0.00928305 -1.22686 -1.42948 -1.00998 -1.14796 -1.61754 -1.33581 -1.23268 -1.06117 -0.462329 -0.171716 0.236503 0.167837 0.0456511 -0.158556 0.729798 1.20314 1.59736 -0.0858184 -0.103107 -0.384259 -0.493588 -1.59237 -1.53241 -1.00352 -1.12073 -1.07504 0.0657286 -0.279375 -1.06673 -0.738573 -0.742645 -0.737683 -1.47293 -1.26492 -1.89589 0.259129 0.694354 0.851507 0.81929 0.29472 0.498372 0.281215 0.401606 1.15304 0.81008 1.12328 1.335 0.983364 1.42122 -0.396411 -0.503057 -0.117816 0.157154 -0.0930813 -0.153931 -0.657023 -0.843941 -0.975567 -1.02485 -1.28126 -1.52936 0.116165 0.485411 0.955365 0.616707 1.2193 0.305311 0.581774 -0.009417 0.398121 0.226505 0.507307 0.850884 0.807893 0.432921 0.694747 0.550243 1.02984 0.018686 -0.250794 0.323864 -0.116814 0.01565 -1.1182 -1.21025 -1.43533 -1.4333 -1.12122 0.179209 0.588713 1.15944 1.09788 0.79973 -0.21093 -0.41562 -0.641031 -0.770258 -0.75759 -0.693902 -0.66639 -1.27712 0.558728 1.09676 0.81547 0.507389 0.375746 1.68504 0.0907217 0.0602348 0.0145722 0.015289 -1.34986 -1.54236 -1.52066 -0.927152 0.651247 0.655063 1.05364 1.28891 2.25546 0.148349 0.466791 0.69042 0.72764 1.47935 0.605284 0.530978 0.306223 -0.0699453 -0.308642 0.308729 -0.23979 0.246201 0.0419614 0.436871 0.876839 0.159153 -0.847644 -0.433528 -1.38087 -2.39762 -1.48067 0.267034 0.311021 0.364259 1.01044 0.58977 1.38085 0.379975 -0.474208 0.263888 0.69389 1.14756 0.826634 0.192055 -0.589533 -1.405 0.0947648 0.761049 -0.564593 -1.09655 0.375733 0.74383 0.742824 1.08813 0.315348 -0.429648 -1.36655 -1.82568 -0.327663 0.235791 0.401904 0.467846 -0.774655 1.05574 0.262576 -0.763438 -0.493461 -0.163171 0.477177 1.00259 1.0749 0.141955 -0.577817 -0.963612 -1.29023 -0.444886 -0.25158 -0.499388 -1.18885 0.708822 0.643606 -0.0691818 0.430073 -0.161605 -1.06831 -0.513555 0.157412 -0.237873 0.453905 -0.211721 -0.792157 0.518745 -0.774352 -0.877494 -0.741693 -0.039339 0.936744 1.09378 1.23521 0.183549 -0.130877 -0.89648 -1.18365 -0.769423 -0.718153 -1.21167 -1.91766 0.548799 0.228314 -1.13827 -1.61594 -0.707326 -1.03265 0.0463341 -0.268838 -0.0900885 0.381933 0.103719 -0.498237 -0.783481 -1.13264 -1.05806 -0.965138 0.109145 0.818861 1.28253 1.19714 0.711194 -0.301629 -1.12866 -1.03897 -1.1232 -0.249791 -1.09499 -0.228813 -1.31685 -1.8318 -1.84341 -3.28789 -0.775016 -1.06102 0.450456 -0.0348051 -0.478592 0.279885 -0.969023 -0.481502 -1.87981 -1.34829 -1.73479 -1.573 0.198647 0.480099 0.585227 0.881367 0.483249 -0.843918 -1.19435 -1.55913 -1.51781 -0.677094 -1.20818 -1.33235 -1.90621 -2.43049 -2.11409 -2.42233 -0.889185 -0.605416 0.669717 0.50897 0.453855 -0.575579 -1.0185 -0.35343 -2.01212 -1.77552 -1.90647 -1.36894 -0.631399 -0.417762 -0.604626 -0.674081 -0.397047 -0.413107 -1.18671 -1.47206 -1.57474 -1.64545 -0.990075 -0.97093 -2.09352 -2.12448 -1.9463 -2.72233 -2.00424 1.03169 -0.0462052 0.199215 0.369255 -0.185269 -0.786408 -0.45394 -2.28632 -2.25958 -2.37668 -1.25769 -1.00723 -0.462158 -1.0553 -0.90049 -0.416329 -0.931936 -1.83821 -2.05209 -2.21346 -1.61126 0.289393 -0.726807 -1.86762 -2.09307 -2.20119 -2.23247 -2.16338 1.0184 0.507787 0.325383 0.530063 0.0326133 -0.677489 -0.415772 -1.34695 -1.40638 -1.70942 -1.11074 -1.22516 -0.82857 -1.01476 -1.05194 0.305136 -0.0890768 0.536495 -0.100236 -0.0730955 0.0946912 0.675768 0.236774 -0.404462 0.350456 -0.489113 -0.124528 0.0397178 0.135374 0.168062 0.295563 0.739274 0.516383 -0.644945 -0.269567 -0.798119 -1.02392 -0.443138 -0.0454872 0.292121 0.254662 -0.430434 0.131009 0.70649 1.77474 1.11247 0.594606 0.407073 0.918754 0.635066 0.449595 0.00488112 -0.234556 -0.87954 -0.789833 -0.480799 -1.65425 0.273885 0.178732 0.574382 0.770941 -1.19583 -0.168789 -0.00535553 -0.263022 -0.599558 -0.619604 -0.156251 -0.39248 -0.781007 -0.504102 1.04999 1.41942 1.11669 1.20207 1.47785 1.2403 0.19714 -0.379865 -0.586911 -0.741057 -0.975334 -0.862281 1.43584 -1.64648 -0.535366 0.132173 0.466747 0.531304 -1.60786 0.982912 -0.0587659 0.18849 -0.365309 -0.386512 0.409244 -0.166636 -0.575493 -0.108896 -0.0259279 -0.171225 0.18541 0.0827597 -0.149129 0.276555 -0.785086 -1.59844 -1.10267 -1.01698 -1.09449 -1.93214 1.33505 -1.08048 -0.717639 -0.685481 -0.759672 -0.546583 0.663729 0.18915 0.0749785 0.108578 0.496284 0.149464 0.824184 -0.0291345 -0.461315 -0.440582 0.449917 0.280639 0.839075 0.3316 -0.0480627 -0.404982 -1.06875 -1.58905 -2.20721 -0.307251 -0.435027 -0.501958 1.19359 -1.00395 -3.84368 -1.4032 -0.74895 -1.15581 -0.50139 -0.840018 1.73772 1.38248 1.62695 0.818674 1.65582 1.12714 0.726206 1.22383 1.235 2.48071 1.60371 1.9633 2.02211 -0.0911049 -0.685392 -2.45795 -1.62358 -0.868923 -1.79175 -1.14193 1.52966 -1.0895 -3.4943 -2.01059 -1.81209 -1.61863 -0.51466 0.846135 1.37928 2.49189 2.59956 1.73366 2.06406 1.577 0.996489 1.09672 2.04308 2.42728 1.74161 1.69218 1.38436 0.902259 -2.13199 -3.13916 -1.92969 -1.12861 -1.77941 0.667615 1.34654 -1.08532 -3.27586 -4.32808 -4.03136 -1.56463 -1.02259 -0.684188 2.15491 2.22369 2.86141 3.26387 3.07676 2.56203 2.07887 1.65445 1.60962 1.57311 1.89519 2.33892 0.72706 0.0249105 -2.58018 -3.13901 -1.1737 -1.57921 0.440695 1.21511 1.80292 -1.07455 -2.78845 -4.46259 -4.90004 -3.91346 -1.97502 -0.918392 0.118642 1.13734 1.99069 2.33933 2.51915 1.89292 1.88311 1.60666 2.74956 2.84066 1.47599 0.658529 -1.00887 -1.64796 -1.08448 -0.870604 -1.1449 0.599042 0.163583 1.57134 2.07622 -0.741182 -2.51106 -3.42352 -3.66339 -4.70448 -3.57449 -0.630995 -0.332435 0.106644 0.754384 0.204384 0.582172 0.534131 0.992388 -0.127206 0.393387 -0.0254913 0.921954 0.416442 0.198404 0.403014 -0.0149732 -1.0831 0.982926 1.07916 1.8074 1.57682 0.809242 -0.866523 -3.19205 -3.25183 -3.25099 -3.15862 -4.00858 -3.29081 -1.6988 0.371936 0.576586 0.435159 0.254094 0.580994 0.161167 -0.110493 0.339817 0.280116 0.00690499 0.840848 -0.59981 -1.08182 1.03665 0.220624 1.36067 1.38904 1.27692 1.38341 1.21969 -0.804439 -2.86213 -2.6956 -2.99193 -3.0627 -1.88212 -1.53342 -2.44182 -3.65943 -1.16707 -1.55513 -0.305622 -0.186624 -0.424575 0.0650695 -0.575943 -1.30234 -1.09341 -1.09355 -0.291915 0.565977 1.75697 0.785108 0.58026 0.314418 0.841173 -0.258626 -0.759166 0.00570552 0.00220859 0.0158282 0.00607362 0.00993865 0.00607362 0.00883436 -0.395078 -0.408697 -0.178409 -0.554804 -0.557565 -0.770811 -1.01855 -0.0577568 1.09953 0.47022 0.12684 0.0097546 0.0174847 0.00515337 0.00736196 0.216735 0.621972 1.22791 0.959742 0.0130675 0.00736196 0.00496933 0.014908 0.00865031 0.0158282 0.00644172 0.0163804 0.00202454 0.0117791 0.0139877 0.000368098 0.014908 0.015092 0.00865031 0.0160123 0.00294479 0.0156442 0.000552147 0.00147239 0.00110429 0.0104908 0.00478528 0.00460123 0.00184049 0.0136196 0.00404908 0.0180368 0.0103067 0.0126994 
0.0128834 0.00791411 0.00423313 0.00754601 0.0123313 0.00368098 0.0110429 0.00644172 0.0163804 0.00588957 0.00294479 0.0182209 0.00515337 0.0143558 0.0163804 0.0130675 0.00846626 0.00957055 0.00828221 0.0106748 0.0163804 0.0138037 0.00662577 0.0161963 0.00110429 0.0103067 0.00239264 0.0132515 0.0126994 0.0171166 0.0145399 0.00680982 0.00110429 0.00736196 0.000920245 0.00625767 0.00202454 0.0132515 0.0176687 0.00147239 0.0154601 0.00404908 0.00791411 0.000184049 0.00294479 0.00220859 0.00220859 0.00644172 0.00184049 0.0103067 0.0147239 0.0119632 0.00736196 0.0115951 0.00625767 0.00460123 -0.276272 -2.87121 -1.44775 -1.18118 -0.804663 -1.32454 -1.21764 -1.19544 -1.22862 -0.767686 -1.99579 -0.973707 -1.37614 -1.19138 -1.42184 -0.486179 -0.0738186 -0.271065 -0.345155 -0.227785 -0.538599 0.443863 0.161031 0.130479 0.192475 -0.100447 -0.64151 0.00543143 -1.59323 -1.83411 -1.39919 -1.23953 -1.42927 -1.37836 -1.36071 -2.60656 -1.6985 -1.01136 -0.655685 -1.42117 -1.54455 -1.59937 -1.62206 -1.6833 -0.74221 -0.989014 -0.543304 -0.135557 0.140606 2.11656 0.857174 0.989001 0.586402 1.25811 1.50832 -1.49708 -0.795669 -2.46382 -0.784884 -0.753319 -1.12388 -1.51587 0.74362 -0.0504987 0.136736 -1.02533 -0.526098 -1.51049 -1.53569 -1.74984 -1.45374 -1.4665 -1.4909 -0.729938 -1.04518 -0.428446 0.7011 2.40875 1.83227 1.47269 1.681 2.19828 0.882856 0.481894 -1.16089 -2.68927 -1.90302 -1.29291 -1.43549 0.697122 1.61528 1.06266 1.01094 -0.719705 -0.540813 -1.30525 -1.36916 -1.43697 -1.7485 -1.39666 -0.749241 -0.316135 -0.243129 0.246134 1.20975 2.34878 2.93582 2.12586 1.34589 1.26714 0.990121 0.443102 -1.19975 -2.2264 -2.14641 -2.31913 0.117747 1.05203 2.44514 2.28645 2.48438 1.45054 -0.304087 -1.03327 -1.58108 -1.07593 -1.65883 -1.63344 -2.31752 -0.981172 0.798706 2.0091 1.18162 3.03562 2.66792 2.417 0.616232 1.99107 -0.00995466 -0.385067 -1.21458 -3.30302 -2.82097 -0.736967 -1.1198 0.188565 2.18667 1.72977 1.64869 -0.0090093 -1.13512 -2.35605 -2.63798 -2.38827 -2.50614 -2.90758 -2.55047 -0.123197 1.14567 1.74798 1.54283 2.23656 2.51172 1.62338 1.34551 -0.541712 0.402187 -0.370544 -1.18464 -2.92839 -1.76293 -0.987937 -0.714328 -1.04359 0.609649 1.72543 0.651051 -0.740391 -1.2909 -1.67471 -2.11747 -2.56656 -2.51652 -1.66533 -0.933398 0.117475 0.662414 1.49344 1.70788 1.76121 0.583536 0.647774 0.609366 -0.735648 -0.598973 -0.365419 -1.08389 -0.7952 -1.30333 -1.65112 -0.486235 -0.424395 -0.303209 1.4185 0.355391 -0.760865 -1.72148 -1.9248 -1.36518 -2.30219 -1.97324 -1.06074 -0.396319 0.155486 0.980132 1.31629 1.67386 1.46955 -0.0190493 0.873558 -0.449692 -1.24627 0.204482 -0.656435 -0.960809 0.0577092 -1.08855 -1.43504 -1.02093 -1.00872 -0.424963 -0.7356 0.0943816 -0.638449 -2.18617 -2.03487 -1.65501 -1.23335 -0.635008 -0.49753 -0.474607 -0.240216 0.818901 1.23184 1.48368 1.20934 1.12382 0.482621 -0.919114 -0.843429 -0.45632 -0.749643 -0.894214 0.394243 -0.802693 -1.74598 -1.15028 -1.56547 -0.985433 -2.00817 -1.56364 -1.85707 -3.57783 -1.77384 -1.80077 -0.604242 -0.00631492 -0.24729 -0.848751 0.293376 0.819949 0.600228 0.0634233 0.835936 0.590727 -0.226506 -0.652485 -0.150946 -0.228877 -0.882102 0.117662 0.145172 0.0335431 -0.741834 -1.41133 -1.77455 -1.25214 -2.35367 -2.39887 -2.82179 -2.99335 -3.60505 -2.45468 -1.89773 -1.94181 -2.23764 -0.851954 -0.009887 -0.112841 -0.461017 -0.915067 1.06686 0.703054 -0.924875 -0.833985 -0.271885 -0.430321 -0.801041 1.19545 -0.102121 0.0469528 -0.620823 0.067961 -0.970327 -1.62313 -2.6582 -2.85184 -3.97665 -3.78514 -3.10652 -2.64652 -2.73097 -2.26583 -2.83499 -1.80981 -1.70927 -2.5638 -2.38061 -1.75221 1.40178 0.233756 -0.548964 -0.791129 0.0694002 0.229372 -0.356627 1.52918 0.178175 0.125034 -0.351175 -0.417347 -1.36555 -0.36276 -0.911052 -1.32178 -2.62935 -1.81909 -2.54175 -2.80175 -2.62149 -2.63948 -2.28437 -1.46536 -0.399115 -1.52243 -0.850562 -0.511495 0.743317 -0.0324867 -0.551075 1.03489 1.36522 1.46693 0.976501 0.886578 -0.115262 0.301903 -0.0297017 -0.173859 -0.890067 -0.567014 -0.338752 0.256812 0.770183 0.607729 0.0532902 -0.732826 -0.700849 -0.655432 -1.63293 -0.220306 0.0833621 -0.440173 -0.457642 0.0502321 0.148411 -0.684755 -0.722602 -0.263162 0.0934214 1.15299 0.994366 -1.2249 -0.28026 -0.00450588 0.0311959 -0.503545 -1.76379 -0.525917 0.480916 1.4332 0.900802 0.104216 0.253085 -0.698639 -0.655338 -0.993701 -0.0750946 0.273782 1.23367 1.40465 0.991702 -0.222232 -0.408231 -0.967698 -0.592226 -0.33862 -0.220419 -0.0306527 0.91146 -1.17882 -0.430748 0.0431224 -0.0755773 -0.0646821 -1.95614 0.455128 1.64534 2.35511 1.12687 0.61612 0.820945 0.034383 -1.10371 -1.36589 -1.00279 -0.529761 0.44043 0.661564 1.27287 0.99003 -1.58208 -2.1632 -1.44797 -0.0884503 -0.528765 -0.524711 0.963469 -1.03418 -1.75827 -1.28662 -1.74725 -1.95632 -0.960228 2.17306 1.81166 2.20225 1.53181 0.516339 0.800136 -0.410545 -2.30994 -2.06455 -0.977119 -0.0370372 0.194729 0.586043 0.793038 0.618631 0.264186 -1.95901 -2.01236 -0.0436319 -0.110078 0.247315 -0.192359 -1.03312 -2.62142 -1.30566 -1.04906 -0.817593 -0.0523165 2.21043 2.57902 2.65648 2.33069 1.21811 1.1269 -0.571061 -1.09353 -1.00902 -0.86567 0.455806 0.810897 0.988861 1.31136 -0.237697 0.376838 -1.58611 -1.39509 -0.511446 -0.99113 -0.521477 -0.236075 -1.03422 -3.70876 -1.42882 -0.815505 -0.3183 0.555509 3.41712 2.80484 3.01883 3.01277 1.08449 0.153195 -0.67171 -1.0865 -1.00485 -0.134086 -0.289689 0.908666 1.07575 0.198679 0.0964984 -0.0469386 -1.16282 -1.25526 -0.706555 -0.57539 -0.00254354 0.840603 -1.05564 -1.9363 -2.84356 -0.810665 0.520912 0.985919 1.48649 4.01043 2.98684 2.81463 1.08162 0.819522 0.272226 0.19052 -0.0998271 -0.123178 -0.20966 -0.140025 0.290491 0.348405 0.0737595 -0.246839 -1.65383 0.0880989 -0.277052 -0.108547 -0.729156 1.26199 -1.02672 -1.70766 -2.82021 -2.46604 -0.556636 0.323496 1.19527 1.76439 1.93349 1.27928 0.874697 1.06502 0.88472 0.468594 -0.269131 0.266559 0.660948 0.550074 -0.674487 0.645986 -0.814232 -0.225968 0.437348 1.09568 0.948021 -0.107093 1.21491 1.60652 -0.504484 -1.66375 -1.51616 -0.608734 -2.31062 -0.942407 0.438233 0.382977 -0.323608 -0.412118 0.334969 0.83721 -0.412998 0.817027 0.366274 0.618769 1.08029 0.587239 -0.177139 -0.805967 0.228515 0.498491 1.14236 0.834062 1.18003 2.10006 1.67062 1.73697 -0.0194189 -1.90046 -1.50054 -1.58693 -1.28313 -2.40226 -1.55177 -1.81761 -1.16603 0.127392 0.307724 0.581784 0.0779094 0.235536 -0.281145 0.168775 0.827573 -0.0125903 -0.482731 -0.91273 -0.601011 0.531546 0.187731 1.21239 1.45734 1.61349 1.8807 1.94818 0.675165 -1.77827 -1.99355 -2.39907 -2.45032 -1.55991 -2.02599 -3.4325 -3.51607 -1.08509 -0.840367 0.288647 0.0190159 -0.196737 0.0141435 -0.0809037 -0.388998 0.231332 -0.308338 -0.787929 -1.39363 -0.00452829 0.5529 -0.228079 0.033149 0.224912 -0.105734 1.51137 0.0110429 0.0143558 0.0115951 0.00699387 0.0178528 0.0093865 0.00128834 0.11398 0.111403 0.190937 -0.0347305 -0.036571 -0.0366382 0.498584 0.693176 0.661969 0.240169 0.264361 0.0128834 0.00496933 0.011227 0.0154601 0.169882 0.419396 0.826843 0.663313 0.0152761 0.00239264 0.0134356 0.0147239 0.0171166 0.00846626 0.00386503 0.00386503 0.0173006 0.00460123 0.0167485 0.0141718 0.00883436 0.00276074 0.00147239 0.0130675 0.0126994 0.00423313 0.0173006 0.0158282 0.00110429 0.00699387 0.0152761 0.00865031 0.00699387 0.0174847 0.00644172 0.00128834 0.00717791 0.0154601 
0.0128834 0.0090184 0.0108589 0.00257669 0.00110429 0.0158282 0.00496933 0.0136196 0.015092 0.0103067 0.00993865 0.000552147 0.0136196 0.00257669 0.0103067 0.00312883 0.0090184 0.0119632 0.00202454 0.000184049 0.00736196 0.00570552 0.000184049 0.000920245 0.011227 0.0093865 0.00349693 0.0154601 0.0123313 0.00202454 0.0101227 0.00883436 0.011411 0.0156442 0.00276074 0.0158282 0.0132515 0.000184049 0.00202454 0.00110429 0.00294479 0.00699387 0.00625767 0.00846626 0.0139877 0.000368098 0.00699387 0.00165644 0.0156442 0.00515337 0.00441718 0.0130675 0.00165644 0.00828221 0.0117791 0.0167485 0.0938104 -1.02926 -0.692939 -0.366163 0.254349 -0.166132 0.315642 0.839061 0.0223582 0.105211 0.00831681 -0.412358 -1.19452 -1.01239 -1.31494 -0.841886 -0.336372 0.114623 0.0912442 0.462919 1.23876 2.29425 2.1099 1.8638 1.51954 1.16348 1.22949 0.0086862 -0.167424 -0.597774 -0.346363 -0.0441777 -0.0810971 0.378238 0.999881 -0.0444354 0.403294 -0.788504 -0.712377 -0.911198 -1.09577 -1.19272 -1.04724 -0.912227 -0.903813 -0.496316 -0.511256 0.474135 0.570738 2.25838 1.77326 1.4359 1.01631 1.67284 1.61069 -0.045404 0.481773 -1.12634 -0.389578 -0.430508 -0.660917 -0.010066 0.425109 -0.0534974 -0.310851 0.0536826 -0.590519 -1.23009 -1.16231 -1.16257 -1.16139 -1.11896 -0.923144 -0.399993 0.36178 0.319787 0.662309 1.56457 1.56997 1.35407 1.29253 1.54043 1.0931 0.609718 -0.0310195 -1.08965 -0.983971 -0.869732 -1.24157 -0.143615 0.335812 0.526749 0.199231 0.0522128 -0.0876769 -0.623961 -0.568068 -0.207172 -0.429948 -0.292705 -0.254017 -0.298433 0.56527 0.559093 0.742189 1.40348 1.29375 0.761358 0.867254 1.27459 1.32317 0.605596 -0.148477 -1.30042 -1.51864 -1.79612 -1.69356 -1.16558 0.0824657 0.410705 0.666325 0.47486 0.841452 -0.307269 -0.0168987 0.116337 0.108903 0.163625 -0.211224 0.391035 1.58567 1.75797 1.63178 1.775 0.940928 0.866688 0.063288 0.782409 0.318673 0.342872 -0.172684 -2.14301 -2.40342 -2.64877 -2.66146 -1.95898 -0.601479 0.170742 0.569681 0.0221937 0.3124 -0.912734 -0.467231 -0.535602 -0.490662 -0.374005 -0.0370946 1.70698 1.99324 1.95098 1.78069 1.85749 1.00191 0.387673 -0.0189084 -0.255945 0.640751 0.266152 -0.157626 -1.91303 -2.52075 -2.40451 -2.64091 -2.26889 -0.608876 0.420274 0.770115 0.337041 -0.28777 0.105061 -1.14565 -0.697445 -0.636745 -0.0258837 1.2113 1.47889 2.27944 2.21658 1.73078 1.92562 0.815282 0.0170988 -0.204861 -0.745779 0.507899 0.279499 -0.153972 -1.95257 -2.75884 -2.79624 -2.41099 -2.42585 -0.449487 -0.0435835 0.95453 0.287793 -0.295735 -0.424418 -1.19652 -0.865422 -0.404413 0.161596 1.37059 1.46601 2.38706 2.26002 1.82069 1.99528 -0.133329 0.304058 -0.504135 -0.933317 0.33915 0.307224 -0.117017 -1.97749 -2.74417 -2.80954 -2.5139 -1.8618 -1.04315 -0.0888 0.56814 0.616619 -0.417883 -0.224969 -0.194833 -0.515959 -0.231385 0.990504 1.36148 1.1314 2.31717 2.38032 1.60939 1.30926 0.296313 0.00108162 -0.684472 -0.670697 0.292193 0.229526 -0.274047 -1.36029 -2.34815 -2.95002 -2.57708 -2.08824 -0.941617 0.120099 0.471415 0.368763 -0.943799 -0.551496 -0.499968 -0.64467 -0.259209 0.469159 0.985137 1.24589 2.24485 1.88096 1.25291 0.849522 0.169103 -0.360848 -0.742263 0.205306 0.250693 0.117163 -0.55778 -1.51287 -2.06373 -2.95663 -2.64177 -2.07953 -1.11911 0.388255 -0.0292497 -0.614712 -0.806608 -0.94331 -0.509956 -0.163276 -0.769448 0.0654077 0.154963 0.743451 1.28536 1.75604 1.00316 0.864129 0.197791 -0.590381 -0.72373 -0.0294413 0.257439 -0.165567 -0.552395 -1.93421 -1.83103 -2.74002 -2.41907 -2.00309 -1.24689 0.238748 0.438718 -0.592162 -1.29211 -0.886003 -0.279662 0.00687404 0.0699835 -0.42219 0.151844 0.416009 0.55923 0.973677 0.983878 0.638392 -0.0819962 -0.407308 -0.941391 0.207424 0.463737 -0.0237781 -0.617247 -1.73823 -1.61655 -2.26313 -2.63463 -2.23168 -0.51438 -0.363159 0.749707 -0.155789 -0.401249 -0.661013 -0.322066 -0.0198439 -0.308517 -0.520854 -0.0235285 -0.571742 -0.264248 0.851726 -0.359082 0.794828 -0.317432 -1.08926 -0.75667 0.263963 0.357799 0.130161 -0.847995 -1.77054 -1.71922 -2.00058 -2.66377 -2.03766 -0.643278 -0.00841588 1.60693 0.880078 0.866042 0.854417 0.0986123 0.548984 0.317273 -0.213198 0.140539 -0.447365 -0.295859 0.317687 0.0393707 0.555364 -0.8553 -1.25454 -0.223602 0.228502 0.403331 -0.200671 -0.507394 -1.77635 -1.69083 -1.93606 -2.6705 -2.2106 -0.65787 -0.0215709 0.544209 1.062 0.951303 1.70745 1.1888 1.10607 1.01012 1.04505 0.220741 -0.176502 -0.163785 -0.408463 -0.667608 0.281383 -0.617759 -0.963893 -0.327094 -0.119137 0.156318 0.178163 -0.481177 -1.87632 -1.70074 -2.07736 -2.20354 -2.36311 -0.49664 0.37553 0.680055 1.40833 1.41856 1.91132 2.3451 1.38371 0.766777 0.935306 0.758244 0.27625 0.643381 -0.798386 -0.559848 -0.18509 -0.660159 -0.838074 -0.0348001 0.0282249 0.0492995 0.252617 -0.0452135 -1.74171 -1.99442 -2.20714 -2.25825 -2.34814 -0.477535 0.484151 0.771025 0.539025 1.41333 1.93028 2.05278 1.10778 1.05546 1.17054 0.917067 0.334106 -0.391046 -0.282635 -0.638045 -0.0391364 -0.989452 -1.05205 -0.378082 -0.317643 0.111591 0.209341 -0.0516208 -1.04504 -1.01431 -0.658082 -0.890145 -0.98898 0.314426 0.136352 0.615517 0.658429 1.40509 1.75101 2.2847 1.87889 1.86401 1.27981 0.801404 0.493038 -0.45266 -0.394503 -0.842319 0.0278933 -1.1987 -0.518754 -0.41628 -0.14594 -0.184137 0.223997 -0.0482328 -0.533041 -1.05271 -0.68301 -0.675989 -0.752594 -0.0133002 -0.271928 0.5175 0.578641 1.5152 1.32818 2.09894 1.59168 1.86453 1.86352 0.967399 -0.584056 -0.587474 -0.622837 -1.51313 -0.639881 -0.956949 -0.258423 -0.0361544 -0.293224 0.718007 0.343527 -0.215684 -0.321313 -0.230156 -0.287656 -0.360437 -0.200698 -0.355582 0.409571 0.00700311 0.374106 0.349013 1.00703 1.49043 1.5722 1.44216 1.56198 0.498731 -0.160748 -0.793883 -1.0847 -0.81167 -0.666409 -1.13366 -0.0762218 -0.256953 0.346048 -0.482773 0.495342 -0.0561282 -0.699318 0.238293 0.209045 -0.816423 -0.80355 -0.234196 -0.237005 0.0533011 0.0247159 0.103862 1.15243 1.37777 1.18913 1.14144 1.6063 1.48816 -0.752225 -1.36118 -1.18407 -1.5881 -0.774514 -0.696027 0.213359 0.822723 0.284792 0.00537661 0.68475 0.302283 -0.610696 -0.426092 0.680737 0.323488 -0.537986 -0.544634 -0.78312 -0.382281 -0.0947293 0.137017 1.05038 1.05071 1.40566 1.27432 1.60437 1.18943 0.0714253 -1.12296 -1.77397 -1.57601 -1.08343 -0.0517172 1.08722 0.893856 0.537987 0.29455 0.943344 0.482601 -0.441412 -0.303263 -0.359901 0.00733218 -0.00794639 0.0810908 -1.35972 -1.05138 -0.143783 -0.250699 0.7851 1.07669 1.05501 0.810062 0.775428 0.726065 -0.195679 -0.910483 -1.44722 -1.63823 0.005153 0.566519 0.488482 0.489906 0.409035 0.516584 1.17572 -0.213647 -0.0527503 0.0557379 -0.126951 -0.266436 -0.471843 -0.376069 -0.940962 -0.895252 -0.416981 0.174525 0.853765 0.832648 0.81794 0.735289 0.80995 0.318945 0.30767 -0.865473 -0.917732 -0.669446 -0.340196 0.199365 0.181477 0.401109 0.548553 0.638481 0.954027 0.00386503 0.00110429 0.00386503 0.000552147 0.00920245 0.014908 0.015092 0.207935 0.213824 0.205761 0.0434423 0.0443626 -0.120117 -0.592808 -0.340868 -0.0461486 -0.227086 -0.150349 0.0154601 0.00920245 0.00202454 0.00552147 0.018126 0.102279 0.231109 0.255472 0.0145399 0.00257669 0.0178528 0.0158282 0.0145399 0 0.00883436 0.0115951 0.00423313 0.0117791 0.0115951 0.00883436 0.0106748 0.00699387 0.011411 0.0117791 0.0123313 0.00791411 0.0130675 0.0145399 0.0097546 0.00496933 0.0145399 0.00736196 0.00791411 0.014908 0.011411 0.0147239 0.00993865 0.00294479 
0.0174847 0.011411 0.0121472 0.00184049 0.00644172 0.00460123 0.0174847 0.0101227 0.0154601 0.0126994 0.00386503 0.0130675 0.00110429 0.0117791 0.00773006 0.011411 0.00588957 0.000920245 0.0090184 0.0121472 0.000920245 0.00625767 0.0156442 0.0108589 0.00883436 0.00184049 0.00846626 0.0121472 0.00386503 0.00460123 0.00570552 0.00110429 0.00276074 0.00570552 0.00128834 0.00386503 0.0090184 0.0147239 0.0117791 0.0117791 0.0156442 0.0108589 0.00625767 0.00202454 0.00239264 0.00607362 0.00754601 0.00773006 0.0141718 0.00294479 0.0141718 0.0101227 0.00423313 0.00552147 0.000368098 0.00460123 -0.325703 -2.71937 -2.14858 -1.79918 -1.5877 -1.24312 -1.21295 -0.960407 -0.975155 -0.461335 -1.38171 -0.790144 -0.33858 -0.083136 -0.191389 0.366742 0.0576489 -0.0491184 -0.0576669 0.0187982 -0.245376 0.587165 -0.0105101 -0.222581 -0.41146 -0.771552 -0.738643 -0.328499 -2.31951 -3.32186 -2.66292 -2.26018 -2.42898 -2.04498 -1.16234 -1.36885 -0.666906 -0.463584 0.141103 0.16959 -0.121982 -0.224602 0.0865023 -0.0856262 0.204862 0.000110964 0.473612 0.417924 0.281608 1.42767 0.0252933 0.305096 -0.491416 0.0108509 -0.140861 -1.92022 -1.33271 -3.85185 -2.02971 -2.20037 -2.14808 -2.28683 0.144137 0.630174 0.788069 -0.222389 0.2958 -0.0192876 -0.0455397 -0.183985 0.205279 -0.172645 0.0727505 0.264201 -0.155582 0.537066 0.899248 1.75269 0.609356 -0.0174605 -0.0594306 0.69149 -0.587607 0.427642 -1.08348 -2.94474 -3.31791 -2.24092 -2.08086 -0.35546 1.02863 1.18274 1.79694 0.509035 0.846405 0.322214 0.0246363 0.175242 -0.172565 0.244596 0.795102 0.849433 0.886497 1.26229 1.71492 2.25221 1.86577 0.656853 -0.0746685 -0.249708 0.291616 0.409668 -1.08785 -2.58977 -2.95789 -3.59469 -1.04992 -0.476207 0.620683 1.60297 2.35711 1.671 0.882917 0.158168 -0.250322 -0.522467 -0.401643 -0.344229 -0.657453 0.484432 1.55928 2.19639 1.23679 2.19977 1.34068 1.20689 -1.13087 0.35897 0.105797 -0.370861 -1.11263 -3.0457 -2.90247 -1.90501 -2.34885 -1.28186 0.12609 0.981003 0.941452 0.913503 0.0233591 -1.08509 -1.48512 -1.84284 -2.03226 -1.72651 -1.19504 0.881348 1.60284 1.70177 1.70354 1.71684 1.42674 0.231323 0.0146236 -0.515295 0.0980648 -0.391403 -1.07977 -2.40752 -2.09323 -1.85232 -2.01954 -2.19676 -0.843058 0.715881 0.0689518 0.13139 -0.209001 -0.523806 -1.38508 -2.04619 -1.97661 -0.639554 0.155749 1.2518 1.10496 1.01364 1.39387 1.13014 -0.377858 -0.303474 -0.19396 -0.532162 -0.588111 -0.438734 -0.944387 -0.535509 -1.62841 -1.76005 -1.72996 -1.851 -1.66206 0.151383 0.361435 0.125467 -0.842481 -0.855126 -1.26081 -1.86274 -1.62903 -0.222698 0.74477 1.13381 1.28801 0.967301 0.778162 0.720725 -0.936745 -0.0790913 -0.773755 -0.742741 0.371204 -0.748032 -0.858081 -0.00585468 -0.995034 -1.75867 -1.94777 -2.18915 -1.61941 -1.83349 0.225815 -0.527295 -1.157 -1.08106 -1.39253 -0.757178 -0.0571977 0.068811 0.567953 0.701923 1.16712 1.25149 0.242905 0.562374 -0.00579945 -0.54287 -0.362662 -0.179337 0.092179 -0.733525 -0.659814 0.0232205 -0.785339 -1.85053 -1.83035 -2.51598 -2.31981 -2.21493 -1.86309 -1.50761 -2.20133 -1.38913 -1.43998 -0.278425 0.428509 0.240533 0.416565 0.582929 0.888461 0.314387 -0.692692 0.0151152 -0.643659 -0.294512 -0.122878 0.473516 0.221437 -0.81997 0.174907 0.169819 -0.0883363 -0.696414 -1.83621 -2.70423 -2.71661 -2.45947 -2.43813 -2.72664 -2.74109 -2.93969 -1.89025 -1.11134 -1.37788 -1.42805 -0.283265 -0.191031 -0.00274147 -0.878133 -1.25617 -0.00736217 -0.65867 -0.282282 -0.202505 0.274917 0.0936644 -0.738903 0.862115 -0.079761 0.0528403 -0.619995 -0.772122 -1.53206 -3.02528 -2.49464 -2.85914 -3.87541 -4.01771 -2.39806 -1.91053 -2.2309 -1.67516 -1.99335 -1.45516 -1.51592 -2.5614 -2.28427 -1.84597 0.161088 0.0338195 0.0798268 -0.180942 0.779102 0.781211 -0.251131 1.1391 0.222322 0.139435 -0.48594 -0.427066 -1.43244 -1.31155 -1.19854 -1.52854 -2.78516 -2.13801 -2.272 -2.29165 -1.93526 -1.9882 -1.7039 -1.79619 -1.20151 -1.95256 -1.17555 -0.783856 0.0770102 -0.324607 -0.0496544 1.37634 1.67088 1.75339 0.824069 0.538938 -0.0567896 0.281334 0.206518 -0.277523 -1.35233 -0.972458 -0.565093 -0.11076 -0.476441 -0.559997 -0.523349 -0.496925 -0.567497 -0.353276 -1.45551 -1.10211 -1.10011 -0.864905 -1.00705 -0.0802495 0.653955 -0.148568 -0.0167112 0.228055 0.805051 1.53703 0.714781 -1.07096 -0.094779 0.139966 0.0111779 -0.476448 -0.834949 -0.663117 0.0928941 0.867985 0.643758 -0.336226 0.476269 -0.379198 0.118875 -0.142543 -0.262749 0.0838342 0.363546 0.455539 0.34506 -0.0296789 0.347219 0.240752 0.0680457 0.326147 0.371838 0.617267 0.627594 -0.980914 -0.484497 0.0769582 -0.124631 -0.214919 -1.06415 0.433611 1.57164 1.74899 0.785691 0.336691 0.57425 0.122083 -0.515259 -0.445635 -0.79506 -0.64154 0.22639 0.284841 0.887406 1.24909 0.0421115 -0.465528 -0.511209 0.630969 0.232593 0.0485565 0.565015 -0.746997 -1.37998 -1.08517 -1.25257 -1.20412 -0.472256 1.81938 2.48965 1.78825 1.14255 0.387666 0.426732 -0.608831 -1.5933 -2.16638 -0.893997 -0.439127 -0.0906029 0.43036 0.436615 1.39709 1.49827 -0.498111 -0.491447 0.399507 0.0992534 0.391005 -0.248467 -0.767636 -1.95982 -0.896255 -0.499823 0.228866 0.72261 2.82761 3.24279 1.8331 1.46827 0.0660803 -0.0875148 -1.59319 -1.81875 -1.68963 -1.65989 -0.525285 -0.158359 0.232462 0.49203 1.51897 1.55046 -0.297569 -0.23207 0.043308 -0.171696 -0.374157 -0.153965 -0.740236 -2.98543 -0.922862 0.463561 0.602149 1.35795 3.49216 2.65899 2.35367 1.93925 0.400125 -1.0759 -1.90428 -1.45471 -1.48288 -1.44859 -1.21046 0.0141087 0.131242 0.586004 1.0294 1.1305 0.124001 0.0680856 0.560917 -0.377768 0.0191498 0.696845 -0.762851 -1.54532 -1.89467 0.297161 1.34007 1.79544 2.09686 3.44532 2.69054 1.68774 0.167041 -0.470461 -0.732261 -0.894387 -0.760235 -1.02534 -0.911692 -0.722482 0.332863 0.46559 1.08291 0.971087 -0.234877 1.27433 0.266846 -0.124331 -0.546629 1.03893 -0.712706 -1.00122 -1.25396 -0.816373 0.534995 1.28692 1.81654 2.12078 1.31307 0.730826 -0.108329 0.21851 -0.519743 -0.528553 -0.98694 -0.603355 0.0633725 -0.00264281 -0.381809 1.48869 0.342259 0.966935 1.45946 2.03636 1.73454 0.768112 1.15482 1.42952 -0.0270332 -0.894236 -0.130423 0.635902 -0.574984 -0.171005 0.911312 0.7459 0.0377791 0.0096658 -0.188478 -0.162081 -1.26711 -0.234686 -0.583195 -0.127825 0.358925 0.66933 -0.263457 0.00786789 1.11996 1.05511 1.94679 1.74083 2.16115 2.70555 1.74721 1.65495 0.443001 -0.555323 -0.0691784 -0.126912 0.118938 -0.909779 -1.02637 -0.964638 -0.496995 0.159912 -0.311312 -0.2906 -0.702961 -0.79212 -0.911511 -0.909215 -0.0809695 0.0507017 0.421112 0.105319 0.0426031 0.859186 1.16412 2.20395 2.45426 2.49962 2.66674 1.97897 0.877646 -0.291387 -0.0948319 -0.390142 -0.573619 -0.75706 -1.15945 -2.39952 -2.33132 -1.03142 -0.845988 -0.0867903 -1.01842 -1.18065 -1.04427 -1.1525 -0.475111 -0.224244 -0.326441 -0.813943 -1.01176 0.350278 1.28996 1.41031 1.42963 1.59877 1.22887 1.50326 0.0136196 0.0158282 0.0115951 0.00736196 0.0115951 0.0101227 0.000920245 0.144613 0.141668 0.143277 0.0265295 0.0302105 0.11023 0.325348 0.561486 0.546291 0.279653 0.354263 0.0161963 0.00294479 0.00368098 0.00331288 0.219084 0.491664 0.893356 0.721989 0.0115951 0.00239264 0.0167485 0.00993865 0.0103067 0.00773006 0.0141718 0.0174847 0.00883436 0.00662577 0.0128834 0.00644172 0.00368098 0.0097546 0.0126994 0.00184049 0 0.0104908 0.0171166 0.00515337 0.00883436 0.00828221 0.0141718 0.0108589 0.011411 0.00239264 0.00644172 0.00680982 0.00312883 0.0169325 
0.0093865 0.00920245 0.0180368 0.00276074 0.0128834 0.000552147 0.00680982 0.0156442 0.0145399 0.0103067 0.00957055 0.00165644 0.00773006 0.0182209 0.00699387 0.00441718 0.0147239 0.00165644 0.00662577 0.00423313 0.00773006 0.0106748 0.0169325 0.00828221 0.00717791 0.00276074 0.0108589 0.0126994 0.0156442 0.00625767 0.00809816 0.00865031 0.00460123 0.00220859 0.0176687 0.0097546 0.0121472 0.00570552 0.00717791 0.0117791 0.0167485 0.011411 0.00533742 0.00386503 0.0125153 0.0125153 0.00699387 0.0125153 0.000368098 0.0182209 0.00496933 0.0139877 0.014908 0.000552147 0.0147239 0.000920245 -0.0986243 -0.387201 -0.192531 -0.0635717 -0.141965 -0.129676 0.079336 -0.0607695 0.0637009 0.497494 1.15383 0.110988 -0.596171 -0.559246 -1.19834 -0.639617 -0.580298 -0.476033 -0.661452 -0.218946 0.316936 1.58985 1.69077 1.74319 1.78678 1.67273 1.59696 -0.0392727 -0.210946 -0.619349 -0.264055 -0.113963 -0.159017 -0.699707 -0.0139071 0.415731 0.209265 -0.127365 -0.0800903 -1.13613 -1.17801 -0.839089 -1.26058 -1.10392 -0.330613 -0.446358 -0.483298 -0.257536 -0.547949 0.585571 0.403816 0.668297 1.07666 1.51441 1.52795 -0.0260172 -0.11419 -0.90055 -0.242466 -0.372276 -0.610056 -0.946919 0.283254 0.532318 -0.118326 -0.375262 -0.337816 -1.00085 -0.872046 -1.16278 -1.14236 -1.11702 -1.02833 -0.246713 -0.426434 -0.600742 0.117077 0.898129 -0.126294 0.739158 0.968939 1.54045 0.841493 -0.253606 -0.578852 -0.667601 -0.986178 -0.684697 -0.193286 -0.556696 0.0433965 0.658425 0.469508 0.154423 -1.69674 -1.02433 -0.794802 -1.03143 -1.23583 -1.54992 -1.14919 -0.978565 -0.264628 -0.353012 -0.0535667 0.493275 0.881678 0.166091 0.529574 0.821804 1.33441 -0.250115 -0.760731 -0.976722 -1.1119 -0.476208 -0.822369 -1.11177 0.0155906 0.651146 0.301705 0.287369 -0.0613754 -0.146622 0.476749 1.02736 0.147987 0.187654 -0.228932 -0.535781 0.431479 1.22519 1.02612 1.54059 1.12795 1.48328 -0.390343 0.603812 0.92021 -0.303026 -0.786217 -1.80831 -0.843738 -1.71924 -1.5438 -1.40423 -0.837328 -0.0909934 1.06087 0.09199 0.156067 0.046348 0.314178 1.12735 0.743771 -0.097218 -0.327708 -0.394339 1.42973 1.01387 0.601944 1.24523 1.35269 1.26153 1.05189 0.0277776 0.634912 -0.300737 -0.762406 -1.30072 -1.26918 -1.27986 -1.49685 -1.4483 -1.24572 0.420583 0.303945 -0.178149 0.0661502 0.623354 0.76714 1.04763 1.09745 0.203153 0.430551 0.00885492 -0.242526 0.472133 1.12879 1.72655 0.699234 1.56538 1.05482 0.465183 -0.334232 -0.394367 -0.559475 -1.74182 -1.29386 -1.7316 -1.49121 -2.29949 -1.70846 -0.452558 -0.000204791 -0.152236 0.0852242 0.62704 1.41579 1.34798 1.07237 0.403074 0.623002 0.0272019 -0.146412 0.467858 0.449907 0.591367 0.656017 1.49215 1.1227 0.622664 -0.0817548 -0.229667 -0.534116 -1.84422 -1.7541 -1.82814 -1.50101 -1.84778 -1.55266 -0.530192 -0.526923 0.136763 -0.0330909 0.634358 1.67878 1.61143 1.76891 1.40114 0.439902 -0.0168528 -0.023223 -0.561978 0.241297 0.933017 1.95394 1.52624 1.4936 1.42091 0.0761772 -0.31084 -0.54326 -1.27074 -1.49095 -1.86037 -1.70653 -1.72243 -1.7983 -1.55974 -1.09356 -0.271172 -0.534735 1.21852 1.44477 1.53978 1.89856 1.77523 0.454625 0.186681 -0.251344 -0.77967 -0.170697 0.437001 1.08519 1.55118 0.878288 1.77255 0.918993 -0.399602 -0.383514 -1.51139 -1.04697 -1.38245 -2.35065 -1.81812 -1.09343 -2.23334 -1.78675 -1.334 -0.432555 0.372356 0.946939 1.04781 0.838201 1.08858 1.37117 -0.0184382 -0.768529 -1.25598 -1.214 0.638074 1.29446 1.62482 1.56006 1.56958 0.715401 -0.804364 -0.469982 -1.79944 -1.67092 -1.47675 -1.92875 -1.5103 -1.38395 -2.56632 -2.94088 -2.22047 -0.48906 0.231458 0.474047 0.00868734 -0.0562794 0.214936 0.355167 -1.108 -2.06388 -2.22064 -1.65482 1.02128 1.3125 1.31652 1.06872 1.04643 1.03767 -0.195744 -0.626973 -1.65912 -1.5577 -1.21969 -2.03209 -1.31572 -1.74302 -2.13581 -2.25242 -2.25279 -0.636293 0.00619506 -0.0935904 0.175202 -0.360297 0.105401 0.410144 -0.747421 -1.67746 -2.33602 -2.05907 -0.26915 0.766332 1.20971 1.43175 0.518466 0.872522 -0.144648 -1.76227 -1.65775 -1.91202 -1.07977 -1.22139 -1.39693 -1.51549 -1.16242 -1.32589 -0.272746 0.219081 1.00431 1.14512 0.393785 0.588691 0.605784 0.766582 0.0850605 -0.894168 -1.13404 -1.18278 -0.154296 0.724675 1.06185 1.07494 0.370706 0.537903 -1.40344 -1.38734 -1.69176 -1.68061 -1.40559 -1.15073 -2.00737 -1.2118 -0.700527 -0.513373 -0.224825 -0.271167 0.00883868 0.286032 0.0470832 -0.206308 0.318712 -0.0314708 -0.242033 -0.268716 -0.478641 -0.563913 -0.136279 0.00308579 0.751688 0.695084 0.453064 0.496527 -0.574841 -1.36256 -2.05468 -1.45979 -1.4654 -1.18866 -2.41301 -0.345061 -0.275758 0.215343 0.256122 0.065629 0.60618 0.114836 -0.129006 -0.108807 0.42909 0.492052 1.05546 0.410255 0.176677 -0.0229842 0.49787 0.59666 1.02529 0.325697 0.311601 -0.406489 -0.511811 -0.54216 -2.27459 -1.95128 -2.32977 -2.10978 -1.73033 -0.529868 0.36746 0.263307 0.352671 0.393151 0.600401 0.0314264 -0.425134 -0.0617194 1.09806 1.39561 2.27943 1.80581 1.31668 0.511905 0.30559 -0.000408101 -0.75181 0.0673049 -0.257348 -0.582182 -0.552316 -0.430504 -2.06047 -1.37172 -0.972459 -1.43147 -0.976082 -0.13069 0.723369 1.63151 1.65978 1.39814 1.45169 0.756413 0.60463 1.40831 1.68939 3.61594 3.31747 3.45486 3.6615 1.13401 1.23759 -0.353591 -0.462507 -0.422979 -1.27293 -1.23416 -0.599409 -0.540403 -1.51903 -2.1211 -2.30635 -1.75917 -0.657773 0.25925 1.0828 1.78945 2.54815 1.28448 0.906141 0.865975 0.596904 0.62412 2.58161 3.07034 3.05736 3.33531 3.20451 2.08126 0.222921 -0.358453 -1.13544 -1.03523 -1.92945 -0.652277 -0.324136 -0.540475 -1.15953 -1.561 -3.65868 -1.45274 -0.644415 -0.432648 1.89484 1.82257 1.55453 1.62405 1.57791 1.8161 1.88727 1.69134 1.75576 2.10045 2.88794 3.12199 2.30829 2.31901 0.282712 -1.05278 -0.67905 -1.54253 -0.740867 -0.907751 -0.164053 -0.543633 -1.5095 -1.9676 -2.00862 -3.26996 -1.1914 -0.228315 1.17901 1.06828 1.25444 1.25209 1.23908 0.756628 0.912761 1.02708 2.11268 2.06084 2.11895 1.54823 2.03345 1.53777 -0.10891 -0.226497 -0.464316 0.278558 -0.624575 -0.498644 -0.00347579 -0.186927 -1.40933 -2.08923 -1.23259 -1.82236 -2.59892 0.209099 0.245212 0.112982 0.452522 -0.139085 0.207671 0.21798 0.318754 0.292379 0.878427 0.619122 0.336851 0.78112 0.207616 1.01976 0.470342 -0.465232 0.287741 0.404488 0.432037 0.607467 0.0676326 -0.237943 -1.91044 -1.82729 -2.06359 -1.63026 -1.33975 -0.222475 -1.65963 0.0844676 0.407971 -0.134153 -0.0885203 0.304788 -0.0762626 -0.274015 -0.171782 -0.177066 -0.141267 0.578858 -0.211785 -1.03706 0.671414 1.06805 0.95059 0.732757 0.596407 0.692962 1.35233 0.155153 -1.5242 -1.55601 -1.68556 -1.81262 -0.519012 -0.259508 -0.282027 -0.61069 -1.35982 -1.87525 -0.83756 -1.00355 -1.13382 -0.833441 -1.00233 -1.93744 -1.93594 -1.76644 -0.794293 0.3568 0.346043 0.84109 0.455392 0.892043 1.01624 0.217541 0.301978 0.00552147 0.0169325 0.00625767 0.00496933 0.00570552 0.00791411 0.00147239 0.135634 0.139315 0.148497 -0.0421237 -0.0371543 -0.274824 -0.783011 -0.612554 -0.163001 -0.545301 -0.43659 0.0106748 0.00202454 0.00515337 0.00791411 0.144265 0.435708 1.35038 1.18824 0.00736196 0.00478528 0.0178528 0.00570552 0.0132515 0.0169325 0.00147239 0.0158282 0.00828221 0.0103067 0.00331288 0.00552147 0.00128834 0.00828221 0.0093865 0.0139877 0.0106748 0.00883436 0.00220859 0.00147239 0.000736196 0.0121472 0.0176687 0.0128834 0.0145399 0.00552147 0.000920245 0.000368098 0.00423313 0.0128834 
0.00588957 0.00828221 0.00312883 0.00791411 0.00441718 0.00644172 0.00809816 0.00865031 0.00957055 0.00349693 0.000736196 0.00257669 0.00773006 0.00920245 0.00496933 0.00312883 0.00809816 0.0161963 0.00276074 0.00128834 0.00957055 0.00662577 0.0093865 0.0101227 0.00110429 0.00165644 0.0103067 0.0156442 0.00552147 0.0126994 0.00791411 0.0182209 0.0139877 0.00699387 0.0141718 0.00717791 0.0101227 0.0171166 0.00276074 0.00349693 0.00680982 0.00644172 0.00791411 0.00773006 0.00920245 0.00220859 0.0115951 0.00496933 0.00478528 0.0161963 0.00202454 0.00533742 0.0138037 0.0123313 0.0093865 0.0125153 -0.338339 -2.92735 -2.57259 -2.09542 -1.89193 -1.26345 -1.49386 -1.48607 -1.3535 -0.824079 -0.83632 -0.405089 -0.231033 0.149136 0.103601 1.02494 0.876728 0.504365 -0.227963 -0.0476261 -0.611899 0.302854 -0.0766294 -0.602519 -0.630656 -1.07395 -1.19654 -0.384214 -2.48268 -3.39008 -3.28377 -2.89842 -3.0161 -2.76436 -1.21189 -1.01295 -0.61689 -0.263627 0.181973 0.263049 -0.0727907 -0.00585709 0.193799 -0.085997 0.442754 0.28979 0.709651 0.933133 1.11892 0.817423 -0.511814 -0.345454 -0.898531 -0.462552 -0.470125 -1.71685 -1.63676 -4.07529 -2.55249 -2.80341 -2.60064 -1.98206 0.10506 0.675669 1.04974 -0.174289 0.444184 0.208001 -0.089897 -0.00796405 0.28087 0.245535 0.2862 0.545205 0.289707 0.789814 1.15515 1.85078 0.838773 -0.520026 -0.425457 0.386865 -0.899416 0.526427 -1.20222 -3.3333 -3.89244 -2.75182 -2.02596 -0.449202 0.815955 1.44271 1.79894 0.615781 0.662274 -0.237729 -0.114631 -0.135579 -0.421698 -0.0439282 0.222414 0.361451 1.25351 1.29632 1.63858 1.96545 1.47212 0.56855 0.375649 -0.839538 0.00218328 0.493905 -1.31063 -2.9526 -2.85321 -3.20351 -0.952051 -0.0867404 1.03819 1.8557 2.16565 1.69957 0.578243 -0.0500221 -0.290423 -0.488312 -0.376839 -0.297324 -1.16818 0.217094 1.12848 1.48592 1.35589 1.81358 0.978634 1.07259 -0.956397 0.451434 0.0906472 -0.525527 -1.35123 -3.37163 -2.97339 -1.86519 -2.32938 -1.03093 0.581111 0.588626 0.734609 0.805947 -0.307989 -1.35819 -1.51684 -1.60287 -1.73656 -1.58371 -1.28825 0.591198 1.35596 1.07549 1.03206 1.25697 1.00376 -0.00853263 0.113692 0.0557101 -0.039728 -0.513669 -1.27407 -2.47187 -2.01419 -1.46298 -1.60177 -1.93397 -0.406885 0.307071 -0.148732 -0.152558 -0.486533 -0.683128 -1.14053 -1.72683 -1.69207 -0.545779 0.0605255 0.894428 0.486917 0.487313 0.335503 1.16016 -0.70006 -0.153889 -0.0370275 -0.318061 -0.140044 -0.652138 -1.01599 -1.04421 -1.36875 -1.54354 -1.60011 -1.51486 -1.20846 -0.21535 -0.0508165 -0.186128 -1.1104 -0.94332 -0.926101 -1.71957 -1.33184 -0.0568088 0.47864 0.695373 0.808237 0.429364 0.040354 0.351613 -0.86553 -0.0652897 -0.718477 -0.644613 -0.382454 -0.813138 -1.07381 -0.586469 -1.29553 -1.46987 -1.57267 -1.79974 -1.02529 -1.5131 -0.254063 -0.986796 -1.51639 -1.23241 -1.15089 -0.525268 0.0633675 0.0340202 0.168484 0.280152 0.547672 0.352954 -0.192044 -0.0738058 -0.413554 -1.22531 -0.871763 -0.887848 -0.577223 -0.894809 -0.815068 -0.501504 -1.0082 -1.61791 -1.5386 -1.86607 -1.69574 -1.66968 -1.24838 -0.8422 -1.81159 -1.48252 -1.29955 -0.123952 0.314874 0.254434 0.0468869 0.100167 0.391166 -0.404901 -0.975868 -0.545035 -1.19969 -1.03824 -0.811528 -0.265082 -0.533511 -1.05431 -0.0192588 -0.539468 -0.63875 -1.05458 -1.59154 -2.05175 -1.87402 -1.9046 -1.91193 -1.98387 -2.09211 -1.90877 -1.02872 -0.274667 -0.340604 -0.543351 -0.49961 -0.599302 -0.637258 -1.47397 -1.64101 -0.398976 -1.1508 -0.803796 -0.695955 -0.383391 -0.704433 -1.05568 0.45544 -0.762957 -0.6161 -1.17758 -1.28579 -1.661 -2.11737 -2.08292 -2.41963 -3.31813 -3.2175 -1.74639 -1.18794 -1.40991 -0.921937 -1.06616 -0.85393 -1.19843 -1.95206 -1.74944 -1.36359 -0.250794 -0.571716 -0.600076 -0.815753 -0.0400186 -0.0728597 -0.665883 0.693722 -0.489252 -0.376278 -0.979945 -1.10007 -1.9029 -1.65018 -1.54829 -1.91383 -3.16526 -1.58368 -1.70384 -1.49594 -1.14321 -1.06509 -1.06427 -1.36799 -0.463433 -1.34785 -0.841255 -0.480134 0.483063 -0.0515757 0.0680539 0.572814 0.754762 0.793841 0.219899 0.067748 -0.728613 -0.367709 -0.601843 -0.844786 -1.68953 -1.20627 -0.896077 -0.548951 -0.765505 -1.18362 -0.939 -0.61773 -0.724483 -0.529419 -0.750345 -0.293437 -0.477308 -0.305978 -0.398247 0.367659 0.785645 0.211734 0.172146 0.386551 0.67204 0.593246 0.186072 -1.17302 -0.632749 -0.565963 -0.624777 -1.13071 -1.319 -1.03983 -0.199739 0.4282 0.0325283 -0.849571 -0.0608087 -0.507298 -0.124308 -0.14556 -0.537974 -0.0668935 0.14071 0.210355 0.73417 0.458391 0.645116 0.483108 0.339712 0.514989 0.505872 0.508528 0.205998 -1.14014 -1.20478 -0.64582 -0.691994 -0.667767 -1.45792 0.306198 1.07019 1.31213 0.319696 -0.138593 0.0786942 -0.187889 -0.538318 -0.32743 -0.878237 -0.915488 0.0380419 0.156248 0.738081 1.0358 0.106505 -0.18122 -0.286238 0.45516 0.312018 0.119051 0.26621 -0.970891 -1.14517 -0.798692 -1.00407 -0.847349 -0.389145 1.29239 1.83225 1.29072 0.933539 -0.0760356 0.0716664 -0.791943 -1.65951 -2.28792 -0.896548 -0.638676 -0.282232 0.364147 0.18195 1.02768 0.991858 -0.271921 -0.328572 0.308283 0.157695 0.60677 0.533586 -0.96503 -1.59904 -0.703711 -0.44389 0.406302 0.621654 2.35051 2.88084 1.62056 1.07017 -0.207742 -0.322853 -1.57838 -1.93715 -1.79635 -1.94135 -0.631741 -0.103986 0.168421 0.484694 1.06528 1.14502 -0.227749 -0.0873492 -0.00818502 -0.10002 -0.0424566 0.467719 -0.972878 -2.46358 -1.03673 0.117563 0.66732 1.40431 2.76526 2.24326 2.15815 1.8117 0.0711145 -1.06382 -2.00846 -1.63024 -1.64157 -1.59848 -1.46582 -0.025683 0.0298705 0.177919 0.918944 0.433072 0.429122 0.0536287 0.375201 -0.139573 0.432166 0.761256 -0.971918 -2.04513 -1.58237 0.121691 1.3794 1.84394 2.19286 2.99112 2.43465 1.82284 0.287192 -0.450724 -0.969713 -1.14927 -1.13152 -1.30942 -1.23637 -1.11084 0.0673051 0.254222 0.808716 0.350345 -0.105217 1.4491 0.415412 0.424317 0.0926605 0.831794 -0.835188 -1.80548 -1.06902 -0.685481 0.405127 1.34215 1.86494 2.55074 1.84852 0.397437 -0.254994 -0.0318146 -0.475212 -0.73369 -1.30727 -0.967475 -0.421292 -0.271683 -0.682318 1.04549 0.540494 0.912537 1.6303 2.53017 2.24215 1.31412 0.996859 1.29416 -0.357104 -1.71058 -0.976686 -0.39684 -0.4659 -0.223515 0.699821 0.832207 -0.179388 -0.0361759 -0.323757 -0.412544 -1.5985 -1.20982 -1.3375 -1.02347 -0.0668674 0.305604 -0.167784 -0.105684 1.2459 1.30782 2.14086 2.19958 2.17634 2.05453 1.39152 1.5356 -0.135891 -1.3691 -0.914627 -0.878116 -0.67825 -0.616046 -0.720869 -1.05374 -0.517304 -0.0596987 -0.461957 -0.455489 -0.845337 -0.91671 -1.07839 -1.01722 -0.359925 -0.324592 0.390264 0.0889628 0.315424 1.35876 1.37118 1.97691 2.07891 2.10311 2.2961 1.70439 0.472175 -0.952694 -1.01338 -1.22487 -1.3076 -1.33852 -1.79927 -2.29411 -2.23914 -1.31059 -1.16847 -0.197417 -0.899003 -1.27701 -1.21757 -1.23317 -0.631496 -0.104228 -0.292769 -0.67344 -0.672612 0.320621 1.17212 1.01152 1.08602 1.25802 0.821557 1.31543 0.00496933 0.00754601 0.000920245 0.0160123 0.00809816 0.00588957 0.0176687 0.123231 0.121574 0.10953 -0.00344732 0.0026263 0.105451 0.563565 0.604874 0.737599 0.155245 0.319994 0.000184049 0.0169325 0.0101227 0.0136196 0.237007 0.508125 0.874993 0.713648 0.000736196 0.0126994 0.000736196 0.00588957 0.0110429 0.00460123 0.0163804 0.0160123 0.0101227 0.0125153 0.00533742 0.0115951 0.0123313 0.00607362 0.00533742 0.0121472 0.0106748 0.0136196 0.00773006 0 0.00294479 0.0139877 0.0108589 0.00754601 0.00680982 0.0154601 0.0145399 0.015092 0.00331288 0.00662577 
0.00736196 0.0115951 0.00754601 0.0110429 0.0174847 0.00496933 0.0090184 0.00883436 0.00128834 0.00699387 0.0167485 0.00276074 0.0182209 0.00257669 0.00754601 0.0115951 0.00515337 0.00754601 0.000368098 0.0134356 0.000552147 0.0093865 0.00680982 0.00202454 0.0138037 0.011411 0.011411 0.000368098 0 0.00257669 0.0176687 0.00883436 0.0176687 0.00165644 0.011227 0.00699387 0.0163804 0.0106748 0.00349693 0.00276074 0.0145399 0.00736196 0.0108589 0.00220859 0.0165644 0.00993865 0.00570552 0.00165644 0.00368098 0.000184049 0.000920245 0.00165644 0.0160123 0.0163804 0.00791411 0.0147239 0.153778 -0.958029 -0.437859 -0.407317 0.23157 0.0374993 0.106963 0.217435 0.253681 0.325648 0.135764 -0.562567 -1.67484 -1.58842 -1.78117 -1.30959 -0.506465 0.0748145 0.0295627 0.633468 0.551674 1.84911 1.92402 1.85731 1.49008 1.35342 1.44848 0.0410023 -0.48218 -0.707399 -0.160841 0.209133 0.0195608 0.281386 0.410307 -0.424731 -0.528076 -0.706609 -0.629005 -1.39956 -1.47782 -1.58344 -1.3106 -1.5822 -0.935819 -0.587125 -0.537517 -0.314816 -0.134046 2.03805 1.96436 1.74943 1.39151 1.92799 1.78381 -0.411265 -0.0384745 -1.01038 -0.201261 -0.296563 -0.578313 -0.122155 -0.0746726 -0.32985 -0.626936 -0.64286 -0.472537 -1.56292 -1.49039 -1.5458 -1.56432 -1.62637 -1.45908 -0.402298 -0.54437 -0.566898 -0.0924066 1.42953 1.38876 1.15282 1.57495 1.88668 1.31804 0.117173 -0.465432 -0.957216 -0.824589 -0.864404 -1.16688 -0.223069 0.137972 0.163179 -0.0524975 -0.208814 -0.598941 -0.712488 -0.554372 -0.439041 -0.575603 -0.55881 -0.585407 -0.10441 -0.0425992 -0.237855 -0.00258438 1.09054 1.33193 1.14869 1.11101 1.5534 1.65874 0.113659 -0.5672 -1.1927 -1.38271 -1.84967 -1.73414 -1.41028 -0.154848 0.301646 0.280494 0.400272 0.166097 -0.475705 -0.250071 0.247039 -0.361191 -0.265097 -0.616908 -0.186717 0.630618 0.840424 0.87783 1.57478 0.743192 0.862481 0.138214 1.17614 0.633712 -0.191131 -0.605823 -1.75472 -2.23529 -2.72668 -2.36509 -1.91589 -0.825018 0.241041 0.605504 -0.282641 -0.212455 -0.788212 -0.628937 -0.107434 -0.177428 -0.597992 -0.436338 0.403868 1.12052 1.11717 1.15563 1.57675 0.788552 0.460185 -0.0601682 -0.203098 0.778181 -0.258758 -0.604127 -1.56346 -2.58407 -2.28435 -2.41935 -2.22597 -0.782606 0.363358 0.646129 -0.268395 -0.837754 -0.440744 -0.623348 -0.219768 -0.147234 -0.21721 0.315289 0.214966 0.789356 1.18984 0.8712 1.82039 0.697764 0.0630291 -0.115868 -0.395629 0.367094 -0.286346 -0.443646 -1.91698 -2.71662 -2.6349 -2.42365 -2.28905 -0.628699 0.0982672 0.314025 -0.21076 -0.566265 -0.600333 -0.129908 0.0905986 0.019192 0.0882256 0.399363 0.230144 0.88715 1.32483 1.01899 1.72312 -0.139141 0.327462 -0.205385 -0.436351 0.457674 -0.116098 -0.559957 -1.89855 -2.36908 -2.64142 -2.54732 -2.00146 -1.07744 -0.321356 -0.0610118 0.0708794 -0.797733 -0.447787 -0.0670838 0.148073 0.692263 0.528046 0.285604 0.0803392 0.996371 0.896416 0.777074 0.998679 0.478704 0.155589 -0.305188 -0.300671 0.451613 -0.193641 -0.755673 -1.56167 -2.1106 -2.68791 -2.4418 -1.9218 -1.40726 -0.797376 -0.315808 -0.179433 -1.26157 -0.263271 -0.24925 0.422902 0.614594 0.546296 0.123637 0.0701511 0.914134 0.623559 0.445723 0.470979 0.408577 -0.0142248 -0.241297 0.62033 0.593417 -0.28474 -1.01512 -1.62655 -1.6879 -2.6476 -2.50332 -1.94481 -1.43568 -0.881186 -0.858432 -1.12849 -1.06827 -0.832783 -0.0311373 0.576807 0.387468 0.193227 0.292022 0.0333496 0.0924704 0.544399 -0.273481 0.577636 0.414645 -0.199143 -0.225367 0.473712 0.443714 -0.606912 -0.994904 -1.96759 -1.80754 -2.44784 -2.17138 -1.78305 -1.66917 -1.118 -1.10781 -1.56808 -1.1202 -0.458988 -0.109582 0.0948849 0.0418674 -0.557136 -0.0125943 -0.520691 -1.19115 -0.612541 -0.405185 0.48628 0.31128 -0.224323 -0.615487 0.342273 0.538214 -0.345162 -1.01496 -1.71217 -1.68314 -1.93046 -2.42796 -1.88243 -1.55535 -0.881837 -0.668823 -1.30686 -0.543295 -0.60024 -0.315187 0.236792 -0.236168 -0.489551 -0.110316 -0.792328 -1.14157 -0.533768 -0.859097 -0.0643908 0.0198893 -0.480362 -0.329439 0.554143 0.535917 -0.294939 -1.28391 -1.7301 -1.63676 -1.72212 -2.38403 -1.83921 -1.4746 -0.594542 0.177368 0.11412 0.286196 0.616683 0.46061 0.473941 0.320779 -0.273138 0.127157 -0.517871 -1.00237 -0.564668 -0.575346 -0.181939 -0.403551 -0.978416 0.108831 0.228152 0.529295 -0.613714 -0.903622 -1.80989 -1.65535 -1.69155 -2.40881 -2.37946 -1.35536 -0.555 0.103063 0.253327 0.168866 0.477826 0.712653 0.501867 0.0859171 0.414123 -0.42011 -0.631357 -0.590489 -0.563954 -0.984593 -0.422443 -0.870982 -0.606626 -0.0774431 -0.0237906 0.279879 -0.306977 -0.896051 -1.84198 -1.79253 -1.83676 -1.913 -2.57681 -0.972573 0.125836 0.192186 0.411405 0.374243 0.910958 1.12196 0.512189 0.0295808 0.431858 -0.0946258 -0.28578 -0.22712 -0.808957 -0.671501 -0.690173 -0.674997 -0.549538 0.0707178 0.119249 0.130938 -0.278642 -0.46159 -1.97688 -2.03357 -2.09564 -2.43566 -2.59745 -0.684335 0.128723 0.203055 0.0917269 0.310501 0.623501 0.977342 0.170409 0.206618 0.509696 0.285338 -0.0779327 -0.400447 -0.335991 -0.697505 -0.435401 -1.20713 -1.21519 -0.142444 -0.226658 0.232693 -0.345951 -0.467365 -1.03392 -0.992174 -0.606048 -1.05898 -1.09944 0.152257 0.0277076 0.778617 0.82013 0.871504 1.05135 1.34553 0.967065 0.888872 0.905151 0.640923 0.31286 0.308509 0.40476 -0.795673 -0.248612 -1.45401 -0.817169 -0.186147 -0.221789 -0.300156 -0.40329 -0.470865 -0.434138 -0.873703 -1.12911 -0.971524 -0.840813 -0.189239 0.41082 0.718394 0.924184 0.833214 0.399247 1.12762 0.772987 0.954984 1.15231 0.608711 0.236775 0.16651 0.0440316 -0.567603 -0.99554 -1.10835 -0.601073 -0.547467 -0.302512 0.497738 -0.13528 -0.468495 -0.165003 -0.122696 -0.828631 -0.530841 -0.348829 -0.60272 0.825729 0.472142 0.700223 0.505978 0.990799 1.1821 1.30715 1.19249 1.15572 1.03717 0.202405 0.0953581 -0.12726 -0.0280797 -0.99592 -1.61785 -0.418234 -0.623135 0.342443 -0.665319 0.0180419 -0.460461 -0.672694 -0.222669 -0.280923 -0.892199 -0.693885 -0.404378 0.400641 0.368455 0.58266 0.302759 1.08361 1.3298 1.29014 1.17709 1.42059 1.27474 -0.155284 -0.664779 -0.0514828 -0.572434 -1.11515 -1.02609 -0.126832 0.335927 -0.00348483 0.057846 0.313076 0.140467 -0.577207 -0.903584 0.378966 -0.0993813 -0.733798 -0.241601 -0.158981 -0.142115 0.344574 0.324482 1.08738 1.17241 1.66093 1.46084 1.78832 1.11784 0.200901 -0.265536 -0.779413 -0.420279 -0.646506 -0.330956 0.453916 0.35399 0.14009 0.416327 0.503573 0.118337 -0.839123 -0.758429 -0.846318 -0.530121 -0.143298 0.240765 -0.976982 -0.534873 0.252403 0.012307 0.792032 1.17225 1.04902 0.872516 0.950411 0.804089 0.0839347 -0.208536 -0.465989 -0.660331 0.24578 0.345969 -0.0231159 0.00939544 -0.0911878 0.119879 0.841583 0.273936 -0.41468 -0.407256 -0.612303 -0.722532 -0.275012 -0.31454 -0.207174 -0.422624 -0.146413 0.231715 0.928526 0.972849 0.806791 1.0251 0.894149 0.39042 0.328477 -0.494599 -0.314447 0.105537 -0.316414 0.220035 -0.265063 0.0658194 0.134461 0.337448 0.722383 0.000368098 0.00515337 0.00625767 0.0138037 0.0103067 0.0097546 0.00147239 0.140317 0.139765 0.14646 -0.0460572 -0.0401676 -0.226202 -0.650283 -0.531851 -0.222187 -0.332028 -0.205675 0.0136196 0.0090184 0.0147239 0.00552147 -0.015437 0.0692532 0.242208 0.264477 0.0165644 0.0106748 0.00754601 0.0174847 0.0145399 0.0104908 0.0106748 0.000368098 0.0128834 0.00202454 0.00699387 0.0174847 0.00239264 0.00128834 0.011411 0.0161963 0.0130675 0.00570552 0.0115951 0.0182209 0.0125153 0.0163804 0.00239264 0.0143558 0.00754601 0.00809816 0.0090184 0.00625767 0.00717791 0.00515337 
0.0090184 0.00515337 0.0147239 0.00809816 0.0139877 0.00220859 0.00496933 0.00276074 0.00957055 0.00386503 0.00404908 0.00773006 0.00607362 0.00386503 0.0126994 0.00349693 0.0171166 0.0167485 0.00478528 0.00294479 0.0161963 0.0117791 0.0163804 0.00644172 0.00773006 0.00257669 0.00846626 0.0101227 0.00883436 0.000920245 0.00165644 0.0143558 0.0171166 0.00865031 0.0161963 0.00809816 0.0169325 0.00533742 0.00368098 0.00441718 0.00312883 0.00920245 0.0165644 0.00920245 0.00993865 0.00423313 0.0156442 0.00552147 0.011411 0.00220859 0.0101227 0.0161963 0.0169325 0.0090184 0.00662577 0.0134356 0.207075 -1.72524 -1.8992 -1.75074 -1.34621 -1.77452 -1.36666 -1.17515 -0.976743 -0.28105 0.760393 0.826979 0.285833 0.0415704 0.0548485 0.822306 1.78851 1.80137 0.206437 -0.00591323 -0.337418 -0.357048 -1.17791 -1.06273 -1.11224 -1.26619 -1.47059 0.144895 -0.698443 -1.53077 -1.87539 -1.64013 -1.90479 -1.36388 -0.841817 -0.596344 0.800678 0.956371 1.40445 0.76053 0.0613019 0.224726 0.165052 0.477815 1.19906 1.32288 1.39168 1.68196 1.22863 0.927624 -0.2811 -0.490145 -0.750887 -0.323893 -0.577797 -0.562395 -0.826719 -1.53448 -1.85301 -1.98133 -1.21205 -0.4735 0.835771 0.588879 1.09418 0.860715 1.45819 0.490401 0.421066 -0.0185538 0.467654 0.354114 0.385185 1.23365 1.21951 0.773582 1.02356 1.48041 1.45947 -0.0868259 -0.621776 -0.092597 -0.133395 -0.157959 -1.30211 -1.9163 -1.83543 -1.33995 -1.02451 0.988326 1.46863 1.09753 1.26745 1.3988 0.134548 -0.625092 -0.795521 -1.15178 -0.957756 -0.87474 -0.830309 -0.72686 0.620812 1.34295 1.32435 1.48405 1.63898 1.40828 0.643872 0.050888 -0.514453 -0.154332 -1.40193 -2.74542 -1.76424 -0.392265 0.801743 1.25696 2.05615 1.33883 1.40625 0.0736443 0.437883 0.0413098 -0.00680885 0.546203 -0.0878227 -0.061185 -0.520424 0.0545713 -0.1513 0.345012 0.750403 1.53849 1.05259 0.887765 0.846777 0.329684 -1.37528 -0.56989 -1.42426 -3.27828 -2.0625 -0.463394 0.28216 0.610049 1.68011 0.90688 1.37482 0.114987 -0.916663 -0.62116 -0.417383 -0.187977 -0.355797 -0.781946 -0.909241 -1.21037 -0.142548 0.751543 -0.2761 -0.16042 0.919506 1.13253 0.779817 0.298737 -0.0309141 -0.582358 -1.421 -1.89259 -0.897373 0.0667812 0.0733343 0.843745 1.16526 1.15928 0.161281 -0.644605 -1.16489 -1.09897 -1.02172 -0.406411 -0.337424 -1.11292 -1.56347 -1.54602 -0.787748 -0.00378173 0.0466209 1.41825 0.055911 0.660614 0.893861 -0.289948 0.550703 -0.145127 -1.24883 -0.355685 -0.510245 -0.718197 -0.231782 0.0276221 1.03706 0.763179 -0.144423 -0.769891 -0.951972 -1.42745 -0.738294 -0.169164 -0.10852 -0.567051 -1.39457 -1.29151 -0.492788 -0.44092 -0.389481 0.478345 -1.00684 -0.13051 0.120975 -0.896719 -1.05759 -0.784317 -0.980281 -0.376584 -0.975427 -0.663858 -0.176275 0.225578 0.644296 -0.0688891 -0.346155 -0.661122 -1.46791 -1.08554 -0.870054 -0.5077 -0.163545 -0.777454 -1.07369 -0.997996 -0.574352 -0.683638 0.104444 -0.513307 -0.210166 -1.36545 -2.10826 -2.13428 -2.12872 -0.865473 -1.04965 0.0325662 -0.767165 -0.796354 -0.257289 -0.500748 0.0984955 -0.221918 0.457563 -0.583025 -1.81511 -1.15914 -1.1611 -0.778252 -0.629969 -0.931922 -1.48704 -1.71412 -1.02235 -0.692508 0.0482927 -0.839057 -1.06879 -1.96539 -2.59375 -1.49947 -1.29656 -1.01601 -0.515132 0.0738163 -0.464111 -0.816752 -1.20767 -0.650039 -0.257864 -0.416875 -0.0118872 -0.957726 -1.07939 -0.897086 -0.691914 -0.223806 -0.376391 -0.52115 -1.64204 -1.3937 -1.16142 -0.596684 -0.910226 -0.60581 -0.900495 -2.26258 -2.15255 -1.78673 -1.61715 -1.73095 0.55081 -0.468171 -0.208402 -1.11692 -1.45541 -0.824259 -0.401177 -0.843184 -0.398264 -1.20464 -1.01428 -1.22052 -0.775153 -0.613497 -0.557369 -0.634156 -0.758282 -1.15801 -0.748653 -0.562917 -0.0384748 0.0906483 -0.926191 -1.94954 -2.37568 -1.18181 -1.08124 -1.63538 0.590819 -0.0893061 -0.178243 -0.882586 -1.64854 -1.56745 -0.976167 -0.827958 -1.12363 -1.69356 -1.24776 -1.57011 -1.12989 -0.523569 -0.581391 -0.846572 -0.681568 -0.594962 -0.0768492 0.365663 0.869427 0.595729 -0.0666888 -0.722024 -0.828805 -0.439657 -0.332189 -0.671451 -0.476289 -0.640497 -0.216248 -0.239714 -1.03164 -1.48066 -1.00733 -0.110808 -0.722027 -1.24968 -1.31918 -0.955386 -0.820915 -0.664975 -0.653166 -0.615727 0.778354 -0.0785491 -0.584164 0.823366 1.67472 0.272813 0.00646301 -0.417566 -0.272926 0.00539251 -0.836232 -1.14026 -1.56579 -0.278183 -0.292977 -0.479888 -1.25669 -2.01594 -1.03194 0.0793305 -0.824179 -1.83307 -1.45396 -1.13932 -0.731671 -0.665199 -0.65531 0.247092 -0.46821 -1.07998 -1.01404 0.436457 1.49863 0.213345 -0.447324 -0.575415 -0.22058 0.0240737 -0.125404 0.126014 -1.56085 -1.29923 -0.480491 -0.707118 -0.747227 -2.1949 -0.00417429 -0.0523197 -0.526847 -1.62792 -1.23751 -0.547844 -0.30388 -0.0710415 0.118799 -0.0206845 -0.949758 -0.943496 -0.945851 -0.451725 0.0457149 -0.76466 -0.820502 -1.23069 -0.180123 -0.273858 -0.944167 0.0229883 -1.23242 -0.366353 -0.0535415 -0.11592 -0.704592 -0.25836 -0.79888 -0.361349 -0.364261 -0.796274 -1.11651 -0.547607 0.0751156 0.311317 0.4645 0.4622 -0.592451 -0.486322 -0.46969 -0.316748 -0.992041 -1.63458 -0.839162 -2.055 0.512479 0.182789 0.256527 0.906047 -1.23255 -2.27073 -0.673631 0.0671217 -0.824054 -0.677119 -1.61421 0.263869 0.214364 0.255084 -0.457078 0.293239 1.85406 1.52042 1.74785 1.68226 1.48758 0.245863 0.579445 0.792524 -0.632231 -1.4737 -2.22692 -0.785426 -0.0572027 -0.617506 -0.365339 1.35842 -1.23798 -2.07758 -1.27965 -0.847214 -1.08375 -0.782486 -0.797758 0.0575593 0.793548 0.975433 0.421842 1.32788 2.08175 1.36687 1.49548 2.67514 1.89151 0.733326 0.445021 -0.112604 -0.757401 -2.63831 -2.64477 -1.08263 -0.175528 -0.821448 0.929283 0.7904 -1.23767 -2.77204 -2.61414 -2.89042 -1.40475 -1.04494 -1.19137 0.477346 0.616991 1.36226 2.31496 2.73192 2.97025 2.66784 2.17351 2.21712 1.66653 0.877833 0.695338 -0.552681 -1.04148 -3.05976 -2.56608 -0.712437 -0.611128 0.660654 1.10331 0.570364 -1.23694 -2.73888 -2.87197 -3.3532 -3.53252 -1.70264 -1.19042 -0.162613 0.896207 0.934686 1.69293 2.33705 2.31523 1.9078 2.00228 2.98565 2.61572 0.581718 -0.184845 -1.61292 -1.37872 -1.76203 -1.11714 -0.251865 0.816393 0.850708 0.454403 0.685075 -1.17077 -2.58764 -3.23195 -3.42315 -3.30601 -3.17814 -1.3746 -0.766302 0.0372796 0.479248 0.904044 1.64324 1.4986 1.52228 0.965771 1.60068 0.875064 0.61853 0.533665 -0.0681113 -0.119734 -0.690426 -0.452436 1.17435 1.34764 0.120055 1.14325 0.152348 -1.23253 -3.31079 -3.53004 -3.14358 -3.33755 -3.22804 -2.68494 -1.92092 -0.129582 0.366215 0.783265 1.59762 1.76574 1.95434 1.66821 1.97654 1.81513 0.276577 0.638132 -0.452712 -0.987537 0.275948 0.362265 0.584343 0.45813 0.552781 0.826896 0.669331 -1.15736 -3.21272 -3.10717 -3.2001 -3.46502 -2.83562 -2.45853 -1.94208 -2.92241 -1.15577 -0.239841 1.2596 1.46914 1.09209 1.44689 1.03666 -0.0299193 -0.0556461 -1.31082 -0.283378 0.0212471 -0.613404 -0.187256 -0.293955 -0.22452 0.187951 -1.09105 -1.25279 0.0138037 0.0108589 0.00515337 0.00220859 0.00478528 0.00920245 0.00368098 -0.155927 -0.16108 -0.0161489 -0.297629 -0.306095 -0.437086 -0.194143 0.680822 1.53953 0.575674 0.149557 0.0117791 0.00883436 0.00220859 0.00368098 0.195432 0.673513 1.21784 0.916589 0.0174847 0.00809816 0.0158282 0.0176687 0.00607362 0.0097546 0.00460123 0.00404908 0.0154601 0.011227 0.00423313 0.00625767 0.00736196 0.00239264 0.00570552 0.00184049 0.00147239 0.0141718 0.0147239 0.00846626 0.000368098 0.0174847 0.00920245 0.0173006 0.0130675 0.00349693 0.00220859 0.0180368 0.00625767 0.00515337 
0.00736196 0.0104908 0.014908 0.014908 0.00349693 0 0.0147239 0.00386503 0.0130675 0.0119632 0.00496933 0.00754601 0.00717791 0.00846626 0.00349693 0.0117791 0.0147239 0.0090184 0.00404908 0.0152761 0.00257669 0.00552147 0.0126994 0.0141718 0.0182209 0.0180368 0.0101227 0.0174847 0.0119632 0.00478528 0.00496933 0.000736196 0.00128834 0.00644172 0.00386503 0.00552147 0.00128834 0.00533742 0.000184049 0.0108589 0.0158282 0.00552147 0.0173006 0.000736196 0.00312883 0.00570552 0.00588957 0.00662577 0.00552147 0 0.00828221 0.015092 0.00533742 0.00828221 0.00478528 0.00754601 0.00774681 -0.30583 0.106064 -0.0685621 -0.0647909 -0.0752157 0.0416305 -0.0562529 0.0602309 -0.149893 0.438834 -0.188957 -0.207219 -0.0272211 -0.295974 -0.321929 -0.206119 0.727334 -0.200165 0.0963077 0.481171 1.29319 1.32417 1.29148 1.64993 1.5794 1.63637 0.0604787 0.0519939 -0.0700588 0.265913 0.435595 0.22175 -0.347172 -0.0605425 0.37092 -0.0869298 -0.486731 -0.563424 -0.559608 -0.0904616 -0.316594 -0.354149 -0.460691 -0.444555 -0.674981 -0.834111 -0.54474 0.346404 0.881229 0.82399 1.27936 1.62732 2.16221 2.12792 0.43578 -0.190887 -0.27519 0.0752122 0.217889 -0.0706289 0.172874 -0.0938817 -0.0702543 -0.461872 -0.548623 -0.528234 -0.563556 -0.375072 -0.55064 -0.59859 -0.308148 -0.490365 -0.64182 -0.911587 -0.67531 -0.349727 0.553084 1.3977 1.15383 1.79417 2.17395 1.57872 -0.0154716 -0.696723 -0.306627 -0.364132 0.000664326 -0.133783 -0.634096 -0.0976775 0.0802508 0.0680526 0.0419116 -0.258317 -0.281792 -0.142953 -0.0722393 -0.191988 -0.353666 -0.715104 -1.44027 -0.753216 -0.504979 -0.449575 0.062537 0.363358 2.02881 2.49535 1.37998 1.60813 -0.0269993 -0.860774 -0.687579 -0.321177 -0.916718 -0.9719 -1.12132 -0.202441 0.362825 -0.174766 0.0817072 0.222061 0.37019 0.805427 0.904893 0.712489 0.471507 -0.161688 -0.613861 -0.477531 -0.712004 0.465899 0.709498 0.611618 1.15701 1.2771 1.47884 1.15947 -0.0789652 -0.895488 -1.21823 -1.664 -1.811 -1.7562 -1.10917 -0.838688 -0.288757 0.194421 -0.155155 0.652196 0.943009 1.37994 1.20444 1.11495 0.957296 0.710723 0.218413 0.48201 0.0170625 -0.00229733 0.453521 0.584683 0.868819 0.734888 1.43025 0.843905 -0.0459138 -0.855232 -1.47119 -1.43743 -1.09811 -1.44451 -1.59145 -0.319626 -0.399846 0.660263 0.429354 0.562975 1.2632 1.20166 1.2083 1.27277 1.18218 1.51191 0.834876 0.658719 0.612542 -0.166848 0.783612 0.605226 0.931767 0.659923 0.449048 1.09297 -0.124388 -0.719652 -2.61729 -1.8814 -1.72704 -1.42022 -1.08651 -0.516454 -0.413657 0.63661 0.374723 0.682119 1.30236 1.51019 1.21137 1.09474 1.37152 1.83499 1.04464 0.838548 0.785374 0.43057 0.584318 0.0690999 0.447779 0.264119 0.485835 -0.42679 -0.128501 -0.891433 -3.33702 -2.49738 -1.76269 -1.40804 -0.870852 -0.21581 0.348755 0.321444 0.503187 0.748646 1.36558 1.60728 1.40099 1.47442 1.67319 1.72936 1.12878 0.741849 0.560688 0.321364 0.00364233 -0.192276 -0.189008 -0.506766 -0.455884 -0.495799 -0.32575 -1.26725 -2.81543 -2.40157 -1.80296 -1.41571 -0.659007 -0.223965 0.385546 0.896429 1.21487 1.05044 1.05055 1.3536 1.31108 1.72033 1.79235 1.3667 1.25277 0.764278 0.311087 -0.306891 -0.241516 0.169639 -0.355342 -0.303404 -0.570375 -0.656691 -0.369963 -1.88536 -3.25239 -2.69217 -2.18484 -1.21551 -0.4475 0.627746 -0.219435 0.278255 0.433119 1.57491 1.61885 2.09852 2.04448 1.97387 2.64424 1.51074 1.19264 0.453656 -0.0254364 -0.60608 0.0662829 0.478962 -0.213444 -0.583037 -0.419954 -0.721311 -0.59398 -1.60614 -3.20434 -3.15237 -2.60569 -2.08088 -1.30107 0.0463929 -0.277071 0.02261 0.121473 1.39708 1.90356 2.13162 1.52672 1.54843 2.00457 2.30949 1.7278 0.690395 0.353092 0.196148 0.418261 0.447581 -0.246978 -0.736616 -1.23903 -0.609216 -0.438046 -1.959 -3.1205 -3.17252 -2.63026 -2.06501 -1.56817 -0.721796 -1.16475 -1.03574 -0.859537 1.32695 1.40326 1.51895 1.72192 1.40588 1.55539 2.10723 0.998815 0.70225 0.116391 -0.131799 0.909485 0.921421 0.251538 -0.844775 -1.2012 -1.00743 -0.605763 -2.00238 -3.11831 -3.16669 -2.73355 -2.30678 -1.54745 -0.55615 -0.801937 -0.414469 0.154245 0.849952 1.48105 1.37322 0.707773 0.809118 1.97825 2.40508 1.57811 1.22156 0.668189 0.153095 1.19494 0.995758 0.24624 0.30959 -0.0332472 -0.920892 -0.824973 -1.22738 -3.00346 -3.00144 -2.67135 -2.44491 -1.71513 -0.271705 -0.035833 0.633349 0.68998 1.0012 1.17352 1.21225 0.859212 0.755576 1.23189 1.15502 0.62713 0.437136 0.883673 0.455072 1.10481 0.833695 0.297342 -0.146653 -0.26736 0.00569768 -0.647787 -1.22483 -2.82872 -3.11869 -2.93316 -2.42972 -1.79859 -0.245969 0.300212 0.886161 1.17765 0.979658 1.53902 1.39672 0.664585 0.6904 1.22612 1.16876 0.829726 0.947126 0.237562 -0.143186 0.66251 0.594648 0.353846 -0.414239 -0.102204 0.310586 -0.458339 -0.889689 -2.06347 -1.84536 -2.15528 -1.69355 -1.43919 -0.356666 0.334148 0.887419 1.04106 1.23916 1.45975 1.09773 0.54783 0.55047 0.87429 1.17585 0.585258 0.80031 0.34241 0.214864 0.393124 0.256709 0.364561 -0.16824 -0.587202 0.395671 0.511776 -0.875331 -0.861962 -1.24742 -1.15087 -0.838049 -0.23782 0.349971 0.227215 1.29565 1.1441 1.49468 1.54045 0.871219 0.743977 0.504475 0.510667 0.676751 0.516052 0.327871 0.754518 -0.204526 0.199709 0.121877 0.0118022 -0.289182 -0.114431 0.266403 0.484682 -0.838556 -0.268862 -0.891311 -1.71814 -0.764633 -0.202596 -0.216983 0.473051 0.818854 1.23716 0.999057 0.793477 0.561797 0.57558 0.559924 -0.00277933 0.338659 0.637335 0.347435 0.205234 -0.0382208 -0.215121 0.369624 -0.0439316 -0.427581 0.158205 0.798183 -0.146762 -0.898771 -1.31979 -0.260254 -0.753403 -0.502934 0.144142 0.822361 0.590263 0.176837 0.623611 0.524702 0.584009 0.605924 0.492739 0.643127 0.454533 0.524163 -0.306049 0.135045 0.292977 0.29261 -0.241676 0.319788 0.268862 0.0813677 0.832464 0.266556 -0.363783 -0.877617 -1.4703 -0.136568 0.132637 0.0351187 -0.119729 1.03399 1.63151 1.4413 0.231525 0.205882 -0.12535 0.250099 0.241206 0.178171 0.000753391 -0.0296523 -0.415189 -0.706343 -0.111405 0.59408 0.732696 0.0148151 -0.122063 0.52564 0.5116 -0.589014 -0.145143 -0.490087 -1.04852 -1.10517 -0.328031 0.593134 0.730976 1.11765 0.941688 0.613263 0.621417 0.471459 0.243009 -0.0454364 -0.652959 -0.637902 -0.398202 -0.443704 -0.187783 0.460442 0.0644892 0.0456437 0.0294315 0.393872 0.203133 -0.0964262 -0.716166 -0.417587 -0.0711432 -0.378928 -1.03706 -1.12688 -1.14812 -0.816473 1.03165 1.68344 0.939186 0.582671 0.317984 0.396876 0.279364 0.410338 0.319465 0.377919 0.196294 0.132691 0.493322 0.31173 0.645471 0.599486 1.24142 0.503605 -0.878327 -1.25185 -1.33628 -1.14149 0.1415 -0.133119 -0.715986 -0.82576 -0.771013 -0.775777 -0.15523 0.255199 1.21652 1.42554 1.18944 0.550808 0.503444 0.602279 0.419439 0.524683 0.452429 0.36732 0.375864 0.396584 1.56473 1.50523 0.120718 -0.491233 -1.39468 -1.31111 -1.02822 -0.285752 0.207415 0.0154601 0.0165644 0.0128834 0.00754601 0.0176687 0.00349693 0.00165644 0.13141 0.146318 0.140726 0.0483139 0.0538354 -0.0939949 -0.0876813 0.117274 0.294461 -0.213834 -0.160835 0.00773006 0.0160123 0.0132515 0.0143558 -0.233148 -0.200417 -0.227477 -0.181118 0.00404908 0.0104908 0.00147239 0.00184049 0.00441718 0.00496933 0.00478528 0.00809816 0.00220859 0.00773006 0.000736196 0.0090184 0.00404908 0.0132515 0.00828221 0.00386503 0.0180368 0.00386503 0.00110429 0.0097546 0.015092 0.0134356 0.000736196 0.00147239 0.0134356 0.0138037 0.0123313 0.00257669 0.00791411 0.00441718 
